#include "intrins.h"
#include "stdio.h"
#include "math.h"
#include <STC8.H>

sbit SUCCESS=P5^2;
sbit FAIL=P5^3;

float code hidden_weight[100][120] = {
		{-0.01297726, -0.015605273, -0.017449484, -0.019844456, -0.022067193, -0.024369765, -0.02663004, -0.028458265, -0.030300932, -0.03244048, -0.033896255, -0.035797151, -0.037343156, -0.038523922, -0.040060955, -0.040931926, -0.042743189, -0.043594747, -0.0448812, -0.04581871, -0.0466464, -0.047245468, -0.047708228, -0.0483439, -0.049204563, -0.049624829, -0.049862647, -0.05019537, -0.050358255, -0.050743845, -0.051277915, -0.051309073, -0.050870815, -0.051312814, -0.051209626, -0.051532976, -0.051354702, -0.050894535, -0.051267495, -0.050707404, 0.047611512, 0.04480866, 0.042098634, 0.039474554, 0.03729825, 0.035255518, 0.033166239, 0.031676845, 0.03028634, 0.029048777, 0.028236665, 0.027585294, 0.027195797, 0.027174399, 0.027356888, 0.027678544, 0.028386236, 0.029221785, 0.030583585, 0.031945399, 0.033467141, 0.035048765, 0.037141533, 0.03921646, 0.041375462, 0.043495197, 0.045822971, 0.048229907, 0.050537538, 0.05279243, 0.055037984, 0.057280106, 0.059371183, 0.061481377, 0.063218783, 0.065051902, 0.066267422, 0.067631541, 0.068280144, 0.068840288, -0.030443871, -0.032120438, -0.034675923, -0.036383761, -0.037928314, -0.039433698, -0.040033514, -0.042145063, -0.042367891, -0.043510572, -0.043979357, -0.044136157, -0.04458301, -0.044650963, -0.045626637, -0.044608027, -0.045068329, -0.043811274, -0.042721491, -0.041633795, -0.041158129, -0.039878851, -0.038231136, -0.036932396, -0.034606543, -0.032886073, -0.031410206, -0.028343277, -0.025801568, -0.024020185, -0.020711595, -0.018713097, -0.01546393, -0.012329479, -0.008716267, -0.005891184, -0.002606115, 0.000507837, 0.004731512, 0.007314076},
		{0.00839047, 0.031739151, 0.030539495, 0.005238607, 0.022450917, -0.003550606, 0.019445638, 0.006166557, -0.013401274, 0.010308365, -0.004859084, 0.000417903, 0.003337766, 0.003129245, -0.01717773, -0.005085969, -0.02231681, -0.019813034, -0.006345077, -0.017605503, -0.023847924, -0.007363479, -0.022205328, -0.026831228, -0.011771281, -0.010261515, -0.021939486, -0.015639079, -0.012146275, -0.016989038, -0.0192327, -0.008524989, 0.009513694, 0.000436007, 0.008411616, -0.010772755, -0.007494012, -0.004585646, 0.016177388, 0.003998102, -0.045342745, -0.04204103, -0.034516138, -0.043787673, -0.044480469, -0.028441307, -0.03402375, -0.021971432, -0.037283579, -0.031762096, -0.028193745, -0.019805074, -0.003374086, -0.009719146, -0.012147251, -0.012118987, -0.008240994, -0.000676697, 0.002220346, 0.002641848, 0.021457989, 0.01580204, 0.014981607, 0.023051497, 0.029514476, 0.037542134, 0.035736657, 0.043113726, 0.044167233, 0.054212149, 0.042795937, 0.043453847, 0.045673664, 0.061320772, 0.066026893, 0.073647142, 0.076606116, 0.069129352, 0.074547477, 0.079031947, -0.091555046, -0.087976459, -0.083689129, -0.08129485, -0.077806437, -0.075798092, -0.072381399, -0.071088244, -0.068526881, -0.066984798, -0.06587626, -0.064619785, -0.06351516, -0.063093381, -0.06314715, -0.06336124, -0.063281809, -0.06422001, -0.065457995, -0.066887457, -0.068207734, -0.070988403, -0.073232388, -0.075668716, -0.07827312, -0.081882288, -0.085735285, -0.088956828, -0.092988577, -0.096922646, -0.102200246, -0.10721046, -0.111940059, -0.116886246, -0.121917452, -0.127149146, -0.132183157, -0.138282693, -0.144565096, -0.149382871},
		{0.048160639, 0.051634665, 0.052056856, 0.055519626, 0.054629055, 0.05919252, 0.060958453, 0.066034398, 0.068823935, 0.068901228, 0.062783906, 0.069405182, 0.071009904, 0.062978465, 0.067382204, 0.062843768, 0.062353531, 0.053990757, 0.057833586, 0.047747374, 0.043916427, 0.042254095, 0.043310617, 0.034764513, 0.033674695, 0.023949643, 0.015920951, 0.007109023, 0.002638466, -0.003041656, -0.012031564, -0.023660273, -0.027845905, -0.033966674, -0.046564706, -0.048274628, -0.063169355, -0.06888222, -0.085636672, -0.096087057, 0.074002759, 0.080291876, 0.0862137, 0.091522058, 0.09650364, 0.101256563, 0.104967275, 0.108937126, 0.111728679, 0.114457935, 0.116341794, 0.118195697, 0.119301754, 0.120025136, 0.120216787, 0.120108221, 0.119376169, 0.118542589, 0.117195151, 0.115455172, 0.113404176, 0.110958992, 0.108260268, 0.105253218, 0.101923948, 0.098311416, 0.09442331, 0.09028499, 0.085899635, 0.081269721, 0.07636178, 0.071296604, 0.065960339, 0.060394379, 0.054638626, 0.048627988, 0.04245176, 0.035954613, 0.029337167, 0.022526326, -0.027180737, -0.026409505, -0.022353783, -0.019159053, -0.023585805, -0.021642181, -0.014198295, -0.014893893, -0.014894314, -0.007045672, -0.006578215, -0.0079233, -0.002055651, -0.003966738, 0.00322912, 0.004380909, 0.005040876, 0.008742778, 0.010976435, 0.013648478, 0.018944886, 0.018573746, 0.019844647, 0.026236107, 0.025190144, 0.028327126, 0.032128597, 0.031857728, 0.036447518, 0.037127814, 0.039676755, 0.044276145, 0.043409763, 0.046701421, 0.044559129, 0.049818563, 0.051090121, 0.050221426, 0.050742414, 0.053580843},
		{0.040597591, 0.04435623, 0.048108633, 0.05185774, 0.055538602, 0.059195316, 0.06277732, 0.066284943, 0.069719835, 0.073074745, 0.076264945, 0.079444934, 0.082429665, 0.085306095, 0.087992094, 0.09063115, 0.093066452, 0.095283762, 0.09742466, 0.099371368, 0.101104593, 0.102727203, 0.104193965, 0.105471569, 0.106546508, 0.107500852, 0.108273494, 0.108859887, 0.109292311, 0.10965879, 0.109896457, 0.109917639, 0.109906649, 0.109770958, 0.109474613, 0.109088486, 0.108688705, 0.108244089, 0.107701099, 0.107089535, -0.019569962, -0.021059728, -0.022502539, -0.024138509, -0.025763015, -0.027396468, -0.029012803, -0.030779255, -0.032642251, -0.034422021, -0.036428628, -0.038378334, -0.040368542, -0.042501915, -0.044613889, -0.047040896, -0.049320552, -0.051843259, -0.054396657, -0.05709876, -0.05994479, -0.062764583, -0.065861124, -0.069163196, -0.07246544, -0.07608, -0.07956243, -0.083592284, -0.087555985, -0.09167298, -0.096166525, -0.100789819, -0.105301752, -0.11022053, -0.115465587, -0.12066784, -0.126039313, -0.131404013, -0.137206472, -0.142890634, 0.025997062, 0.018831742, 0.014583484, 0.012773, 0.0105284, 0.003930194, 0.002537573, -0.002251446, -0.00238497, -0.007966918, -0.007989139, -0.01150197, -0.015434523, -0.015966263, -0.016858834, -0.019067084, -0.021789405, -0.021231526, -0.021718378, -0.02383959, -0.023823708, -0.025876144, -0.023789503, -0.023578452, -0.025459294, -0.02450861, -0.022908255, -0.022562982, -0.021871439, -0.018368974, -0.01851984, -0.018310382, -0.013936022, -0.013204191, -0.010358708, -0.010129448, -0.006206014, -0.004413708, -0.000407339, 0.00197173},
		{-0.022573621, -0.021161842, -0.011762078, -0.008347197, -0.013230617, -0.014680451, -0.005984752, -0.006345265, 0.001066654, 0.002073187, 0.004599636, -0.002282233, 0.006141547, 4.09E-06, -0.004250155, -0.006523393, -0.001721211, -0.004122141, -0.007596369, -0.002119308, 0.00141987, 0.001609793, -0.005215174, -0.008535695, -0.0051184, -0.016066878, -0.010850431, -0.0206344, -0.015183575, -0.022406167, -0.023096977, -0.030064363, -0.041988492, -0.046760141, -0.051830043, -0.051375787, -0.05371252, -0.063709687, -0.065182582, -0.079443724, 0.060976435, 0.047536544, 0.041667673, 0.025571539, 0.023460032, 0.00747672, 0.003986218, -0.009024236, -0.00959786, -0.020931851, -0.023651116, -0.028955681, -0.041112101, -0.04200141, -0.051098639, -0.045938752, -0.058215802, -0.056961003, -0.05724739, -0.05936032, -0.060342376, -0.059107957, -0.054226606, -0.047878381, -0.048599879, -0.043288463, -0.038826599, -0.036764635, -0.026711652, -0.019663746, -0.005950519, -0.001244145, 0.010382365, 0.022793669, 0.034122916, 0.050235068, 0.059135289, 0.069694618, 0.084302277, 0.10238002, -0.045976376, -0.041879434, -0.036656607, -0.019654539, -0.015712943, -0.010297973, -0.001438568, 0.010317169, 0.012884545, 0.020777092, 0.031703517, 0.032814227, 0.022461482, 0.03798938, 0.047135234, 0.043770597, 0.03962227, 0.056214069, 0.060749732, 0.04909247, 0.049367022, 0.057138189, 0.042821633, 0.043367412, 0.044821631, 0.033085495, 0.026840253, 0.036881177, 0.031786124, 0.034384353, 0.007959496, 0.013833226, -0.002827054, -0.009704456, -0.004745567, -0.010423649, -0.028561313, -0.037829647, -0.03052846, -0.0477909},
		{-0.004272089, -0.005801448, -0.006234866, -0.007261196, -0.007762916, -0.008017115, -0.008336612, -0.008413627, -0.008530872, -0.00862035, -0.008298089, -0.007851991, -0.007670613, -0.007262447, -0.006995947, -0.00654146, -0.005635687, -0.00482333, -0.004368599, -0.003580559, -0.00320129, -0.002233494, -0.001409551, -0.000610681, -4.20E-08, 0.000122771, 0.000853801, 0.001490228, 0.00236893, 0.003094617, 0.003625728, 0.004058032, 0.005071464, 0.005084186, 0.005582534, 0.006251071, 0.006873151, 0.007022532, 0.007875319, 0.007896464, -0.011526459, -0.010991373, -0.010212244, -0.009490404, -0.008842129, -0.008077087, -0.007341981, -0.006421073, -0.005677513, -0.00476019, -0.003884347, -0.002977774, -0.002048717, -0.001254095, -0.000345296, 0.000561155, 0.001338869, 0.002010617, 0.002792822, 0.003233536, 0.003944593, 0.004293544, 0.004439759, 0.004863987, 0.004834389, 0.004852511, 0.00475247, 0.004481599, 0.003768627, 0.003185168, 0.002427388, 0.001396253, 6.49E-05, -0.001302627, -0.00282196, -0.004577552, -0.006645976, -0.008803064, -0.011221541, -0.013636312, -0.01739339, -0.02017542, -0.022869753, -0.025449348, -0.02792287, -0.030288804, -0.032509862, -0.034589242, -0.036497471, -0.038274646, -0.039866221, -0.041235414, -0.042451381, -0.043454882, -0.04422257, -0.044793292, -0.045097316, -0.045165017, -0.044978346, -0.044521051, -0.043830474, -0.042842513, -0.041579676, -0.040054369, -0.038231189, -0.03612069, -0.033715159, -0.031033306, -0.028066717, -0.024795398, -0.021235796, -0.017432501, -0.013320711, -0.008967751, -0.004332622, 0.000527945, 0.005683994, 0.011044509, 0.016624067, 0.022437971},
		{-0.054085788, -0.056845909, -0.059459046, -0.061898816, -0.064190668, -0.066296413, -0.068219835, -0.069960068, -0.071499104, -0.072857849, -0.074032272, -0.075011313, -0.075767933, -0.07639503, -0.076801501, -0.077038548, -0.077099913, -0.076995469, -0.076729011, -0.076301714, -0.075749235, -0.075041329, -0.074238695, -0.073311028, -0.072281167, -0.071153145, -0.069964491, -0.068686523, -0.06738056, -0.066015582, -0.064621038, -0.063190372, -0.061773718, -0.060343147, -0.058919454, -0.057514448, -0.056133064, -0.054784101, -0.053458126, -0.052192813, 0.033253084, 0.036924133, 0.040426728, 0.043620857, 0.046552598, 0.049173676, 0.051697558, 0.053894911, 0.055882132, 0.057579696, 0.059124299, 0.060441831, 0.06156479, 0.062459687, 0.063088015, 0.063619757, 0.064031996, 0.064186317, 0.06416237, 0.064004534, 0.063727528, 0.063255388, 0.062699174, 0.061949419, 0.061040901, 0.060149062, 0.058952502, 0.057819639, 0.056499958, 0.054941541, 0.053476874, 0.051704365, 0.050007587, 0.048103556, 0.046074276, 0.043817332, 0.041669889, 0.039160423, 0.03673091, 0.034107749, -0.037912059, -0.035744673, -0.033534687, -0.031489604, -0.02947194, -0.027509348, -0.025510304, -0.023841246, -0.022108858, -0.020486321, -0.019146742, -0.01776825, -0.016669593, -0.015450837, -0.014578796, -0.013761756, -0.013131221, -0.012690494, -0.012310031, -0.012204206, -0.012034535, -0.012240114, -0.012742871, -0.013212164, -0.01402295, -0.014842268, -0.015972582, -0.017107249, -0.018573401, -0.020322659, -0.022114336, -0.023908794, -0.026125651, -0.028253438, -0.030573386, -0.033198514, -0.035723639, -0.038469569, -0.041275919, -0.044286139},
		{0.061752701, 0.0628004, 0.058800963, 0.05712688, 0.057186683, 0.055960997, 0.056610607, 0.054904401, 0.051676462, 0.052291165, 0.051712557, 0.047222485, 0.04397832, 0.045065272, 0.044337406, 0.042160593, 0.040411715, 0.038863088, 0.038475369, 0.039177556, 0.037048351, 0.036791736, 0.035269721, 0.034351393, 0.036389007, 0.032303761, 0.03504141, 0.03274593, 0.033723843, 0.034264141, 0.03461994, 0.035052715, 0.040048596, 0.042090254, 0.046815926, 0.045253066, 0.049958982, 0.055496733, 0.054377054, 0.063992873, -0.048862278, -0.045612501, -0.044818295, -0.044871263, -0.04465527, -0.044881607, -0.045398596, -0.043751899, -0.045161557, -0.043725869, -0.044944087, -0.045318118, -0.04607033, -0.047287546, -0.046387403, -0.04971421, -0.049449842, -0.051649971, -0.054512952, -0.054288683, -0.058075563, -0.058620556, -0.063195472, -0.066237148, -0.067945614, -0.071120589, -0.074533152, -0.079925714, -0.083956142, -0.088785755, -0.093316822, -0.099648202, -0.103706718, -0.109627965, -0.117022116, -0.124398512, -0.130378989, -0.138466136, -0.147777714, -0.156543832, -0.094531706, -0.094451656, -0.086912763, -0.083797036, -0.083653423, -0.078529976, -0.078276082, -0.073449486, -0.073307629, -0.07135251, -0.066284615, -0.067818681, -0.063328222, -0.06152294, -0.063718636, -0.059610778, -0.061818223, -0.06247379, -0.060279801, -0.062749746, -0.060914962, -0.060679524, -0.063619604, -0.066092416, -0.066938161, -0.065623397, -0.07126046, -0.072720458, -0.074649039, -0.078604637, -0.079652102, -0.080499881, -0.083953704, -0.089038737, -0.093618334, -0.096692236, -0.097215509, -0.101685413, -0.107573417, -0.111465253},
		{-0.131218337, -0.131223518, -0.131020347, -0.130506249, -0.129735056, -0.128695008, -0.127373033, -0.125843502, -0.123956875, -0.12184902, -0.11951893, -0.116978217, -0.114225936, -0.111167966, -0.107959781, -0.104439078, -0.100939042, -0.097130617, -0.093218997, -0.089143955, -0.0848504, -0.080635298, -0.076142328, -0.071780479, -0.067002083, -0.062739001, -0.058334195, -0.053392903, -0.04897875, -0.045069835, -0.040777652, -0.036219926, -0.031723983, -0.028381466, -0.024109266, -0.020869648, -0.0169048, -0.014185119, -0.010430214, -0.008820652, 0.034358117, 0.028488025, 0.02152469, 0.015605251, 0.010342957, 0.004944872, -0.001340929, -0.00511224, -0.009702023, -0.014376323, -0.01846047, -0.022165432, -0.025001602, -0.028421118, -0.030720934, -0.032517534, -0.034095427, -0.034738887, -0.035534615, -0.0359048, -0.034834887, -0.034990847, -0.033285417, -0.03158269, -0.029424228, -0.0275365, -0.023638813, -0.020588309, -0.016488987, -0.012544349, -0.007794395, -0.004284817, 0.001327848, 0.008434673, 0.012629191, 0.020686303, 0.027478572, 0.03479709, 0.04132886, 0.048939992, -0.037890576, -0.037919562, -0.037926858, -0.037881098, -0.038838043, -0.039495695, -0.039437575, -0.038622375, -0.039136467, -0.040111247, -0.039222596, -0.040539152, -0.039086862, -0.03840448, -0.0386262, -0.038067727, -0.038099661, -0.038549521, -0.038178337, -0.037601265, -0.036986641, -0.036270433, -0.035566455, -0.034039745, -0.0333142, -0.031207399, -0.031571914, -0.030744106, -0.028540968, -0.026457002, -0.025399301, -0.024174819, -0.022386789, -0.021488075, -0.019587786, -0.01789687, -0.016082063, -0.014720996, -0.013519413, -0.010910839},
		{-0.024112747, -0.024844889, -0.025577526, -0.026340814, -0.027066757, -0.027860731, -0.028124196, -0.028870417, -0.029125161, -0.029679042, -0.029770089, -0.029788345, -0.030068217, -0.030201287, -0.030017581, -0.02984885, -0.029444079, -0.028894071, -0.028553196, -0.027869007, -0.027486217, -0.02678935, -0.026314431, -0.025378023, -0.024489439, -0.023985354, -0.02306042, -0.022355779, -0.021684643, -0.02107598, -0.020219071, -0.019394462, -0.01888854, -0.018803339, -0.018047276, -0.018044344, -0.017718409, -0.018142976, -0.018022726, -0.01836506, 0.05282774, 0.047799278, 0.043679503, 0.03979822, 0.035488029, 0.032037283, 0.028439432, 0.025309411, 0.022013474, 0.018930334, 0.016346666, 0.013925656, 0.01168402, 0.00930911, 0.007451521, 0.00585578, 0.005037447, 0.003641278, 0.003109441, 0.002358917, 0.001779928, 0.001360951, 0.001743985, 0.002182373, 0.002603955, 0.003251442, 0.004212732, 0.006046904, 0.007647653, 0.00953618, 0.011522829, 0.0143151, 0.016570579, 0.02008202, 0.022799067, 0.026366139, 0.030735408, 0.03446085, 0.038851207, 0.043835798, -0.043553309, -0.040494196, -0.037548341, -0.03464284, -0.031903766, -0.029270842, -0.026777162, -0.024423527, -0.022304239, -0.020363672, -0.018559779, -0.017052941, -0.015732735, -0.014651543, -0.01383277, -0.013199813, -0.012899241, -0.012873878, -0.013083385, -0.013640022, -0.014427996, -0.015534552, -0.016834607, -0.018510866, -0.020431588, -0.022662098, -0.025139147, -0.027889594, -0.030885523, -0.034153481, -0.037692255, -0.041393568, -0.04538547, -0.049555265, -0.053951997, -0.058494127, -0.063201883, -0.06811385, -0.073181475, -0.078337133},
		{-0.019868776, -0.022545455, -0.012582203, -0.015853645, -0.012417772, -0.009095613, -0.002161188, -0.00181644, 0.007513724, 0.008419302, 0.011116808, 0.01836727, 0.022297348, 0.020623742, 0.028173607, 0.031674512, 0.028121844, 0.034366494, 0.03543212, 0.037250072, 0.04520053, 0.045391992, 0.039484644, 0.041537079, 0.045158681, 0.045155274, 0.044306858, 0.041121849, 0.048828112, 0.042978102, 0.043308406, 0.038258822, 0.036266455, 0.033090739, 0.030904559, 0.027845516, 0.022489197, 0.023141792, 0.020734905, 0.010869364, -0.090607496, -0.081571677, -0.073036367, -0.064013752, -0.054917987, -0.046031814, -0.036916606, -0.027783638, -0.018598211, -0.009365492, -5.87E-05, 0.009240557, 0.018546437, 0.027921808, 0.037290052, 0.046666507, 0.055903557, 0.06513474, 0.074283701, 0.083275563, 0.09211919, 0.100753277, 0.10916392, 0.117206729, 0.125048216, 0.132471664, 0.139523547, 0.146016488, 0.152157229, 0.157676571, 0.162610005, 0.166747661, 0.170456233, 0.173161271, 0.175506695, 0.177036199, 0.177607102, 0.177593423, 0.176576997, 0.174620622, -0.024052961, -0.027440896, -0.023153944, -0.02459924, -0.025596908, -0.021993732, -0.023094265, -0.023112232, -0.020027397, -0.021476895, -0.015013971, -0.018671467, -0.017090909, -0.014487515, -0.008235434, -0.006798876, -0.002241726, 0.000710196, 0.003684994, 0.006353576, 0.005562753, 0.011488695, 0.01490517, 0.013731172, 0.020507144, 0.021141441, 0.027987182, 0.030091511, 0.032098246, 0.034671225, 0.03822872, 0.041334492, 0.044870193, 0.048935146, 0.048985068, 0.055097787, 0.057864686, 0.059649643, 0.063114599, 0.062633264},
		{-0.023474649, -0.021232291, -0.019472649, -0.017702669, -0.016290627, -0.015235349, -0.013656654, -0.012805406, -0.01177102, -0.010669901, -0.009940875, -0.009130673, -0.008685069, -0.008061424, -0.007836125, -0.007690338, -0.007385057, -0.006840896, -0.006915001, -0.007079522, -0.007016083, -0.007120516, -0.00721107, -0.007306221, -0.007730944, -0.008102975, -0.008204483, -0.008745203, -0.009119192, -0.009586288, -0.010564823, -0.011402784, -0.011944283, -0.013094716, -0.014124452, -0.015086786, -0.016349234, -0.017247505, -0.018323129, -0.020216333, 0.024183512, 0.020842995, 0.017674523, 0.014697784, 0.011734447, 0.009021015, 0.006397581, 0.003879053, 0.001655444, -0.000676912, -0.002635502, -0.004352496, -0.005979794, -0.007455309, -0.008750908, -0.009904604, -0.010753565, -0.011353787, -0.011817399, -0.012085928, -0.011959146, -0.011633399, -0.01113526, -0.010230801, -0.008983775, -0.007474068, -0.005755333, -0.003724986, -0.001355263, 0.001416002, 0.004555271, 0.007983501, 0.011691426, 0.015843852, 0.020376036, 0.025293948, 0.030382179, 0.036110435, 0.042066132, 0.048338308, -0.020154571, -0.015771576, -0.011432473, -0.007340135, -0.003414952, 0.000449717, 0.0042756, 0.00740028, 0.010548229, 0.013852123, 0.016440689, 0.018827953, 0.021589106, 0.023341142, 0.025047951, 0.026553743, 0.027627564, 0.028867877, 0.029319028, 0.029608263, 0.028824261, 0.028725015, 0.027766028, 0.026073627, 0.025138406, 0.023063462, 0.021267102, 0.018114154, 0.015881565, 0.012734105, 0.008601049, 0.00482609, 0.000942238, -0.003522485, -0.00812085, -0.012363102, -0.017863375, -0.023152577, -0.028673062, -0.034633699},
		{0.115935235, 0.113164352, 0.108581102, 0.105359443, 0.101207972, 0.096577862, 0.091875164, 0.087951192, 0.083518591, 0.07986541, 0.075275053, 0.071052857, 0.066712835, 0.062621157, 0.058344946, 0.054374262, 0.049600005, 0.046289191, 0.041418522, 0.038284871, 0.034467113, 0.029838036, 0.026249385, 0.023574266, 0.019314461, 0.016591648, 0.013135879, 0.010307024, 0.007234036, 0.004164141, 0.001669096, -0.000455437, -0.002680667, -0.005759302, -0.007511263, -0.010190683, -0.010972311, -0.013225037, -0.015097972, -0.01610713, -0.032878148, -0.036331622, -0.038753131, -0.038147186, -0.046387997, -0.049067228, -0.051670651, -0.053263942, -0.048538023, -0.05044889, -0.058676436, -0.059023006, -0.054649899, -0.055422973, -0.057082219, -0.055043848, -0.058639787, -0.05642371, -0.052354084, -0.050658464, -0.048157529, -0.042997858, -0.042283771, -0.035901876, -0.032574596, -0.032920937, -0.032521382, -0.021895722, -0.020448706, -0.015912348, -0.006628697, -0.005555571, -0.00142258, 0.008374297, 0.016044265, 0.018992582, 0.033645178, 0.03551211, 0.042232518, 0.051606552, -0.015834568, -0.019863877, -0.020650005, -0.019737848, -0.022975626, -0.022834167, -0.023080086, -0.025227696, -0.023443696, -0.021147773, -0.019943803, -0.021306132, -0.021995244, -0.021378217, -0.019636819, -0.021888352, -0.015522447, -0.018209146, -0.016158367, -0.01475432, -0.014261191, -0.012000767, -0.009184685, -0.008178143, -0.005234414, -0.003727696, 0.002201577, 0.003896679, 0.005076396, 0.005110462, 0.009294951, 0.012028659, 0.010510855, 0.011405169, 0.016573854, 0.017704276, 0.020848808, 0.023041379, 0.028110851, 0.028834346},
		{-0.103083963, -0.085473179, -0.048130728, -0.090772797, -0.068005486, -0.060166731, -0.057602588, -0.035116135, -0.048310197, -0.064984675, -0.034274919, -0.061934905, -0.046084364, -0.064074737, -0.055415699, -0.034714272, -0.063646282, -0.058698012, -0.014318833, -0.042812002, -0.031875082, -0.060724703, -0.047971804, -0.05150078, -0.012356035, -0.055008974, -0.050105937, -0.046053347, -0.022054796, -0.05636481, -0.038087703, -0.061409346, -0.019689758, -0.026415498, -0.056828881, -0.040148719, -0.060454985, -0.03179898, -0.058570362, -0.046899123, -0.017667404, -0.01369336, -0.011643523, -0.056164528, -0.051170771, -0.028250863, -0.043541538, -0.032255248, -0.032822189, -0.002554576, -0.019655456, 0.004248041, -0.014610556, 0.001772291, -0.039806765, -0.016040961, -0.043781159, -0.043561588, -0.042400192, -0.054060053, -0.034348639, -0.024590322, -0.057717867, -0.06645629, -0.063956496, -0.075234798, -0.063195061, -0.051829497, -0.057717056, -0.071828312, -0.068823531, -0.075081202, -0.110844877, -0.096406333, -0.115168422, -0.140157274, -0.156801567, -0.167404085, -0.140872644, -0.187514537, -0.058169258, -0.055753308, -0.055335376, -0.051799083, -0.049233571, -0.047907955, -0.044556468, -0.042422583, -0.042910806, -0.0410846, -0.037828339, -0.034678161, -0.032466987, -0.030528301, -0.030884236, -0.028831528, -0.026553474, -0.02465197, -0.022847575, -0.02162718, -0.019895829, -0.018145227, -0.015538747, -0.014686301, -0.013269827, -0.012944564, -0.014030429, -0.011470614, -0.010871477, -0.012553599, -0.011359216, -0.009551065, -0.0115859, -0.012444818, -0.011966133, -0.012401275, -0.012532353, -0.012797499, -0.015256136, -0.014139114},
		{0.029272339, 0.025175043, 0.031437406, 0.025079328, 0.030415668, 0.027361644, 0.029392184, 0.021061172, 0.021531766, 0.020026458, 0.026080143, 0.026189928, 0.019869399, 0.024037147, 0.020247742, 0.0192656, 0.016613574, 0.018367088, 0.010682192, 0.013099871, 0.017265834, 0.013087448, 0.008445849, 0.007124538, 0.005327345, 0.011297729, 0.01303953, 0.012150876, 0.005032229, 0.005851297, 0.00274731, 0.002488679, 0.006614998, 0.00226719, 0.001245331, 0.005081572, -0.006990365, 0.003232319, -0.004388225, -0.005859852, -0.012552112, -0.016246038, -0.023751216, -0.022525254, -0.024464927, -0.018859379, -0.024478532, -0.023395946, -0.023284469, -0.020860171, -0.020383052, -0.019428623, -0.027138839, -0.016772171, -0.015481715, -0.017595372, -0.012331162, -0.014313593, -0.017801702, -0.013737394, -0.008272478, -0.009948424, -0.006322408, 0.001054602, 0.001816484, 0.005300204, 0.006428654, 0.014518466, 0.023452303, 0.020617936, 0.023436817, 0.036213036, 0.033523365, 0.042672771, 0.046029976, 0.052949431, 0.061214345, 0.061702173, 0.066990882, 0.076488226, -0.036192058, -0.037431874, -0.038614295, -0.038356159, -0.040511187, -0.04000278, -0.040786243, -0.041813623, -0.041194101, -0.041131989, -0.041266637, -0.041506003, -0.04055704, -0.039942251, -0.039008913, -0.037698897, -0.035685812, -0.03447021, -0.031845871, -0.02970332, -0.02803533, -0.024766499, -0.02227409, -0.019062223, -0.016741857, -0.012247345, -0.009861578, -0.006187661, -0.00113907, 0.002486734, 0.006110538, 0.010885882, 0.014964075, 0.019586832, 0.025351844, 0.030120642, 0.034676666, 0.040345428, 0.044727819, 0.050213328},
		{0.010157437, 0.017207631, 0.015229469, 0.013559783, 0.02139548, -0.00126937, 0.006018867, 0.002623578, -0.005181398, -0.003631567, 0.002164944, 0.018088258, 0.007845175, 0.023235596, 0.006250353, 0.006463963, 0.008392849, 0.021115507, 0.005748009, 0.000648902, 0.020580976, 0.016128912, 0.032135912, 0.008570576, 0.014004821, 0.032935914, 0.034256871, 0.026385602, 0.027667514, 0.058568209, 0.062624079, 0.066145129, 0.049015053, 0.056736863, 0.068002852, 0.078055272, 0.057965291, 0.071135339, 0.089063491, 0.08930399, 0.076464018, 0.067453993, 0.061658759, 0.060693646, 0.057011008, 0.056542141, 0.048342976, 0.043365798, 0.043384481, 0.031872308, 0.032101122, 0.026768878, 0.02614261, 0.022278164, 0.026263955, 0.025653191, 0.022977784, 0.013542278, 0.019827601, 0.019430866, 0.016796011, 0.013439493, 0.023014733, 0.015859553, 0.026973408, 0.026988019, 0.021572371, 0.037499921, 0.039832856, 0.042738452, 0.048608822, 0.054337222, 0.060205138, 0.065692115, 0.06274928, 0.073892061, 0.082934037, 0.083632257, 0.097875281, 0.098134198, -0.052964014, -0.048870632, -0.045481351, -0.044144835, -0.041064933, -0.037729553, -0.03601538, -0.03251439, -0.030283961, -0.027790503, -0.026964877, -0.024665967, -0.023268679, -0.020630845, -0.01923981, -0.017451477, -0.018052833, -0.016550598, -0.016081032, -0.015929223, -0.017333743, -0.016016457, -0.01866139, -0.017986551, -0.020160279, -0.021344745, -0.021595304, -0.024652132, -0.025752262, -0.029050359, -0.030048809, -0.03377117, -0.036781049, -0.039087061, -0.042934321, -0.044300248, -0.049506447, -0.051172782, -0.055757055, -0.057664067},
		{-0.017319962, -0.017967396, -0.014584647, -0.015544561, -0.013267899, -0.013921079, -0.013625682, -0.018698805, -0.018226542, -0.020149162, -0.013760744, -0.019521538, -0.019668688, -0.015899657, -0.017071561, -0.01983887, -0.021251525, -0.019245074, -0.022260509, -0.022455134, -0.021410177, -0.031091971, -0.030476055, -0.029770918, -0.033578645, -0.029959253, -0.033680297, -0.033438791, -0.040033294, -0.038365875, -0.04207289, -0.045539033, -0.039365371, -0.040005683, -0.046373647, -0.048152791, -0.051807903, -0.054835097, -0.047616532, -0.054585891, -0.084180093, -0.078448135, -0.073523026, -0.066767225, -0.05875263, -0.055752652, -0.054577639, -0.049961969, -0.043559284, -0.040522926, -0.037296963, -0.036173543, -0.030070799, -0.030860774, -0.029161802, -0.026671968, -0.021971564, -0.024788591, -0.02540562, -0.024348617, -0.018553691, -0.023676242, -0.022848958, -0.027049063, -0.025352125, -0.02877195, -0.02766285, -0.035945527, -0.039014419, -0.039040896, -0.043124755, -0.049582766, -0.052364172, -0.059979904, -0.058360975, -0.067667202, -0.07052151, -0.078008783, -0.083764806, -0.092161513, 0.102437044, 0.096382292, 0.087414493, 0.08432184, 0.077167812, 0.074476099, 0.065161237, 0.061423554, 0.055363068, 0.050329248, 0.049398707, 0.045182026, 0.041180852, 0.038636946, 0.038364973, 0.035852142, 0.037274914, 0.037906602, 0.035748341, 0.03809526, 0.037804429, 0.036611431, 0.041863694, 0.044903131, 0.048785609, 0.051468303, 0.054566127, 0.058975973, 0.064800594, 0.071280411, 0.078147638, 0.081942527, 0.092906339, 0.096044218, 0.106302813, 0.116296008, 0.123700731, 0.132422354, 0.139372892, 0.1481642},
		{0.039984657, 0.039534693, 0.028989175, 0.026332475, 0.025836582, 0.015946283, 0.02188597, 0.010412444, 0.010602627, 0.011839893, 0.00132912, -0.002699885, 0.004420926, -0.007887631, 0.000259757, -0.007132133, 0.001298741, -0.008434999, -0.007598496, -0.009249087, -0.005030186, -0.00682485, 0.000619634, -0.001628547, -0.006442106, -0.002197445, -0.003195386, -0.000199121, 0.006521166, 0.011416033, 0.014294805, 0.003598151, 0.010601819, 0.014901094, 0.01688998, 0.016910944, 0.021627076, 0.029005983, 0.043557536, 0.038614841, -0.058408517, -0.058462842, -0.052035495, -0.045207739, -0.03793409, -0.030306735, -0.029757324, -0.020313678, -0.010932202, -0.00834971, -0.001903341, -0.00273223, -0.006487256, 0.00789497, 0.003468781, 0.002203941, 0.007944328, 0.012744404, 0.002654017, 0.013164936, 0.00799148, 0.009057572, 0.009725548, 0.005192989, -0.000962933, 0.003761097, -0.000684063, -0.010834868, -0.01062465, -0.011124636, -0.020343565, -0.020427666, -0.025551953, -0.036601341, -0.031784592, -0.044806319, -0.043615867, -0.056802784, -0.061512198, -0.066089892, 0.022998062, 0.022907007, 0.019151344, 0.020803725, 0.015581209, 0.019340815, 0.016907531, 0.015503551, 0.01398364, 0.011775653, 0.013072723, 0.011087441, 0.013182495, 0.00847475, 0.013330665, 0.008135911, 0.012090255, 0.007130501, 0.011502788, 0.012440718, 0.012512784, 0.010810253, 0.009723487, 0.012300931, 0.010691531, 0.01091905, 0.01419503, 0.012722156, 0.016751725, 0.014901434, 0.013528312, 0.015561776, 0.014570351, 0.01737036, 0.018771931, 0.02136405, 0.023414199, 0.022170468, 0.025564485, 0.022815498},
		{9.44E-05, 0.000651968, 0.00050257, -0.000742484, -0.001991112, -0.001342172, -0.002618803, -0.002277762, -0.002715829, -0.003384164, -0.005329393, -0.003862789, -0.00390996, -0.004828816, -0.006342784, -0.004759003, -0.004535128, -0.004787455, -0.004400066, -0.004615913, -0.001685685, -0.000600598, 0.001193065, 0.003477494, 0.002131903, 0.003505892, 0.005877756, 0.007415585, 0.010776506, 0.013754424, 0.017983504, 0.02064721, 0.023360282, 0.02438972, 0.025738226, 0.02900793, 0.034216818, 0.03846881, 0.038650805, 0.041003804, 0.100686762, 0.098579851, 0.096531073, 0.094817389, 0.092985358, 0.091132481, 0.089552127, 0.087985054, 0.086604564, 0.085184351, 0.084090049, 0.08296719, 0.082072647, 0.081216258, 0.080584604, 0.080023777, 0.079764766, 0.079452911, 0.079579756, 0.079616167, 0.080097187, 0.080591708, 0.081307781, 0.08226817, 0.083532365, 0.084867067, 0.086420222, 0.088381557, 0.09030961, 0.092627021, 0.095151487, 0.097804526, 0.100636541, 0.103890096, 0.107345097, 0.110910986, 0.114702427, 0.118713587, 0.122977695, 0.127327782, -0.078510919, -0.074882478, -0.07165341, -0.068357542, -0.065190567, -0.062146437, -0.059249967, -0.056586213, -0.054176522, -0.051802729, -0.049709517, -0.04793419, -0.046215218, -0.044950352, -0.043856921, -0.042958829, -0.04232049, -0.041956098, -0.041949855, -0.042009122, -0.042546301, -0.04326012, -0.044308259, -0.045487846, -0.047004563, -0.048701636, -0.050682004, -0.052848513, -0.055303941, -0.057779532, -0.060664029, -0.063697955, -0.066810658, -0.070192052, -0.073680121, -0.077317231, -0.081066606, -0.084899742, -0.088900874, -0.092882854},
		{0.000654396, -0.003815188, -0.015036062, -0.014063484, -0.014554652, -0.005829144, -0.015123605, -0.008239985, -0.0131052, -0.006619859, -0.003113585, -0.005608697, -0.008040474, -0.012604443, -0.019257346, -0.021341555, -0.008602532, -0.009750719, -0.009679727, -0.016663885, -0.018910066, -0.017510726, -0.021610747, -0.030508841, -0.033635706, -0.027902632, -0.031863895, -0.043472467, -0.036137227, -0.046727174, -0.055015312, -0.061132984, -0.048000255, -0.065414831, -0.067436963, -0.072286977, -0.074353598, -0.061882129, -0.080147698, -0.074852827, -0.083654944, -0.076849045, -0.071251191, -0.063416665, -0.056507444, -0.053732517, -0.045907725, -0.04520174, -0.038365948, -0.033923647, -0.030517969, -0.02758966, -0.025356606, -0.0208096, -0.017470209, -0.015524003, -0.013437209, -0.012448079, -0.01237572, -0.014577583, -0.013395106, -0.016772755, -0.019048939, -0.017198208, -0.022453315, -0.026009351, -0.030458126, -0.035163061, -0.039527085, -0.043203079, -0.049443623, -0.055037367, -0.064930079, -0.067446916, -0.079686865, -0.086068988, -0.093377548, -0.107195113, -0.113703854, -0.123610549, 0.064865308, 0.058591893, 0.052018578, 0.050146374, 0.043959169, 0.038550766, 0.034420391, 0.032745323, 0.026759048, 0.025216055, 0.019015699, 0.016849555, 0.015655905, 0.014170637, 0.01460435, 0.011836879, 0.011654353, 0.010133721, 0.010648881, 0.010871019, 0.014802446, 0.014618522, 0.018402885, 0.020163068, 0.022768047, 0.024444977, 0.030583514, 0.03375765, 0.039031983, 0.043977649, 0.049209758, 0.053239645, 0.060222413, 0.065811318, 0.072090766, 0.078967729, 0.086999627, 0.092952024, 0.099907834, 0.109006217},
		{0.043236205, 0.043119117, 0.043018294, 0.042828624, 0.042610973, 0.042324064, 0.042023341, 0.04169665, 0.041269012, 0.040850898, 0.040377585, 0.039888666, 0.039281078, 0.038716007, 0.038018404, 0.037370643, 0.036597807, 0.035863557, 0.035057269, 0.034185684, 0.033294834, 0.032372275, 0.031309566, 0.030335784, 0.029254211, 0.028209037, 0.027025718, 0.025898288, 0.024638617, 0.023464814, 0.02213142, 0.020858845, 0.019464268, 0.018175171, 0.01682448, 0.015394954, 0.013958109, 0.012504869, 0.011010076, 0.009544442, -0.008410688, -0.011480232, -0.014455968, -0.016812963, -0.019183665, -0.02132017, -0.023387359, -0.025507756, -0.027196558, -0.02834275, -0.029508436, -0.030725558, -0.031925048, -0.032398443, -0.032586809, -0.033125392, -0.03248185, -0.032586483, -0.03222979, -0.031500829, -0.030881825, -0.02991642, -0.0286158, -0.027289406, -0.025424251, -0.023320268, -0.021804213, -0.019624405, -0.016839506, -0.014827931, -0.012070404, -0.008677106, -0.005781359, -0.002348604, 0.000361677, 0.003865706, 0.008147677, 0.011340754, 0.01544354, 0.019574167, -0.01372521, -0.013506775, -0.013202001, -0.012949671, -0.012634651, -0.012305821, -0.011929766, -0.011528539, -0.011109936, -0.010637572, -0.010188083, -0.009526646, -0.009076309, -0.008483603, -0.00780854, -0.007139756, -0.006475092, -0.005840783, -0.005011563, -0.004347606, -0.003458153, -0.002723099, -0.001807861, -0.000953972, -1.33E-05, 0.00097421, 0.001907569, 0.002917448, 0.003780839, 0.004886008, 0.005795675, 0.006790316, 0.007838464, 0.008890571, 0.009885838, 0.010948761, 0.011937282, 0.01286269, 0.013798744, 0.014734238},
		{0.118709489, 0.104091671, 0.091101418, 0.107884356, 0.097864814, 0.090395548, 0.08177466, 0.075354309, 0.070683414, 0.062079243, 0.054728391, 0.046486917, 0.036731122, 0.056470247, 0.045029865, 0.033206505, 0.045651211, 0.035461041, 0.034993479, 0.017349346, 0.036921987, 0.01346705, 0.013975235, 0.020831439, 0.024610629, 0.030385984, 0.021445333, 0.015940548, 0.009737568, 0.016244112, 0.015854962, 0.023018417, 0.030076563, 0.04123999, 0.027779552, 0.020668872, 0.044290286, 0.023098984, 0.046281738, 0.037482543, -0.038345543, -0.038393764, -0.028480724, -0.040246324, -0.03576291, -0.030427084, -0.014516737, -0.026801902, -0.030177206, -0.015871315, -0.024484475, -0.012259496, -0.014206425, -0.004574747, 0.000424908, -0.011473133, 0.018331898, 0.016549132, 7.35E-05, 0.030314715, 0.017057253, 0.036627243, 0.02415, 0.04046034, 0.035103644, 0.047719661, 0.047740972, 0.059325358, 0.073544106, 0.071119669, 0.059786211, 0.087038317, 0.076868251, 0.080053542, 0.099144731, 0.099343224, 0.098491972, 0.085148137, 0.107673292, 0.093607351, 0.04407056, 0.047243832, 0.043991818, 0.043332641, 0.038968032, 0.040177416, 0.03809151, 0.035275625, 0.038425348, 0.03764527, 0.037364863, 0.031768516, 0.031905187, 0.02997212, 0.029628026, 0.031556924, 0.035798886, 0.030169186, 0.032035977, 0.032002629, 0.033890023, 0.039042905, 0.036323665, 0.037799596, 0.043058942, 0.04103055, 0.04167173, 0.048605366, 0.047368295, 0.053003696, 0.055815456, 0.060007189, 0.06224293, 0.063881779, 0.074254655, 0.072725694, 0.079070837, 0.080293276, 0.091360795, 0.09056885},
		{-0.015690055, -0.013281058, -0.005923934, -0.015555461, -0.013710963, -0.016368941, -0.003085587, -0.016169214, -0.004829358, -0.00560935, -0.003692166, -0.013158201, -0.000204291, -0.007079517, -0.006706427, -0.0057804, -0.00497345, -0.002141462, 0.005379843, -0.004287389, -0.003639334, 0.000280162, 0.011328477, 0.002366413, 0.012356517, 0.01523804, 0.004319173, 0.017184383, 0.010127617, 0.020182067, 0.027509953, 0.024219045, 0.017360682, 0.029487682, 0.030203465, 0.026851955, 0.03466702, 0.036851089, 0.046290921, 0.044495294, -0.052262594, -0.045142191, -0.044652568, -0.039552897, -0.03165364, -0.031871979, -0.029318181, -0.02385471, -0.022609264, -0.017926428, -0.014288969, -0.013170508, -0.010976527, -0.013743896, -0.011677788, -0.009847448, -0.008743574, -0.011429048, -0.013889351, -0.012892941, -0.014896621, -0.018429329, -0.021368586, -0.022301521, -0.02579239, -0.029903679, -0.032848312, -0.036175143, -0.041145944, -0.048309402, -0.05286455, -0.058424366, -0.062218706, -0.069576192, -0.071659875, -0.077233581, -0.086422404, -0.08916981, -0.098265825, -0.102914953, -0.02378149, -0.023184762, -0.023054399, -0.022807068, -0.022268472, -0.022589236, -0.022687793, -0.023066263, -0.023516756, -0.023814133, -0.024938461, -0.025623112, -0.026819643, -0.027641308, -0.029023441, -0.030350468, -0.032050275, -0.033764565, -0.035650381, -0.037625216, -0.039853104, -0.042174378, -0.044447504, -0.047226115, -0.049458964, -0.051825102, -0.054929923, -0.057551132, -0.060211101, -0.062771843, -0.065798703, -0.068666494, -0.071809508, -0.0745758, -0.077615823, -0.08029189, -0.083619896, -0.086080905, -0.089217097, -0.09223468},
		{-0.038729394, -0.030994916, -0.025225321, -0.020006694, -0.013169481, -0.006060251, 0.001528601, 0.005048719, 0.013937736, 0.019253643, 0.025267271, 0.029646743, 0.03392625, 0.036952132, 0.043860551, 0.045473072, 0.049029686, 0.050817583, 0.055040583, 0.059374861, 0.057732369, 0.062116881, 0.058733851, 0.060196521, 0.063212532, 0.059660992, 0.058393403, 0.05621213, 0.056765251, 0.052311231, 0.046072282, 0.044135284, 0.03833027, 0.033189019, 0.031079134, 0.02737643, 0.017915848, 0.012156188, 0.003288649, -0.00423537, 0.1745867, 0.170627997, 0.166805913, 0.163002831, 0.159313709, 0.15569988, 0.152184538, 0.148769549, 0.145457948, 0.142271882, 0.139171328, 0.136169112, 0.13327904, 0.13051676, 0.127803963, 0.125230836, 0.122718998, 0.12027746, 0.117942792, 0.115627653, 0.113384406, 0.111163039, 0.10895623, 0.10673361, 0.104502447, 0.102236632, 0.099865793, 0.097480145, 0.094958449, 0.092407155, 0.089542973, 0.087000896, 0.084141465, 0.081089344, 0.077570609, 0.074355147, 0.071391967, 0.068042478, 0.06367242, 0.060713299, 0.014953054, 0.014107522, 0.013049241, 0.014014844, 0.012658732, 0.013464128, 0.011840177, 0.012896977, 0.011512637, 0.011983846, 0.010606089, 0.011104532, 0.011498116, 0.011052777, 0.011921768, 0.011473028, 0.011199315, 0.01002952, 0.010656514, 0.00858181, 0.009424599, 0.009086962, 0.006997494, 0.006806451, 0.006884111, 0.005412926, 0.004284353, 0.002106899, 0.000316016, -0.000319375, -0.003109687, -0.005118987, -0.005838988, -0.009230078, -0.010681044, -0.014809533, -0.016451241, -0.02009194, -0.021560463, -0.024846137},
		{0.029604415, 0.02828896, 0.013917629, 0.013826526, 0.015870649, 0.00999899, 0.003282012, 0.003078572, -0.004242453, -0.00323959, -0.000669402, -0.015706065, -0.010923566, -0.015243441, -0.012892342, -0.025350793, -0.027542299, -0.028412924, -0.021262098, -0.027528098, -0.030444811, -0.031985191, -0.035596681, -0.039582203, -0.037625647, -0.035630079, -0.038317695, -0.029920996, -0.029439449, -0.032216209, -0.036053548, -0.037584113, -0.039638916, -0.026354466, -0.027661814, -0.026451471, -0.033330986, -0.029786141, -0.023073111, -0.023894939, -0.048242941, -0.040777202, -0.032413152, -0.031678693, -0.023387778, -0.017931558, -0.01185953, -0.014619676, -0.008145363, -0.000593144, -0.002817694, 0.008582254, 0.010800719, 0.003484928, 0.010029577, 0.010016116, 0.01253319, 0.014259614, 0.012254545, 0.016994474, 0.012464945, 0.016916304, 0.021100621, 0.021563697, 0.014985985, 0.02063816, 0.0182171, 0.019838423, 0.013338491, 0.015840484, 0.008953215, 0.012702655, 0.009826275, 0.006613212, 0.013262643, 0.01390327, 0.0135666, 0.010655855, 0.007639461, 0.010250536, -0.103320743, -0.100331422, -0.097444419, -0.094633283, -0.091930588, -0.089360802, -0.086947221, -0.084703879, -0.082653152, -0.080812426, -0.079196251, -0.077838448, -0.076732461, -0.075917845, -0.075385862, -0.075156427, -0.075240369, -0.075645687, -0.076379144, -0.077445948, -0.078849129, -0.08058739, -0.08266804, -0.085073083, -0.087822265, -0.090879785, -0.09427638, -0.097963686, -0.101939507, -0.106198244, -0.11076471, -0.115556321, -0.120576325, -0.125820253, -0.131291387, -0.136926216, -0.142711313, -0.148663452, -0.154724768, -0.160886562},
		{-0.038450661, -0.037509097, -0.036640185, -0.035874623, -0.035130182, -0.034507013, -0.033977512, -0.03356189, -0.033199194, -0.032975321, -0.032877939, -0.032867099, -0.032960822, -0.033188167, -0.033578182, -0.034072434, -0.034686338, -0.035349134, -0.036234136, -0.037089875, -0.038184273, -0.039318492, -0.040453255, -0.041793373, -0.043148816, -0.044514028, -0.046025101, -0.047408033, -0.049006238, -0.050551124, -0.052065247, -0.053527307, -0.054964799, -0.056524679, -0.057896902, -0.059192714, -0.060525026, -0.061777644, -0.062859098, -0.063874708, -0.007408575, -0.004022847, -0.0003254, 0.002151813, 0.006517212, 0.007464927, 0.011458662, 0.01315412, 0.017744803, 0.020351116, 0.022599892, 0.023768759, 0.028233276, 0.028666052, 0.030303875, 0.034377058, 0.035546029, 0.036854744, 0.036731328, 0.036163019, 0.038919744, 0.039041397, 0.038817275, 0.037971327, 0.038547226, 0.03695236, 0.037015543, 0.034372622, 0.032452119, 0.031242773, 0.027231451, 0.0241286, 0.022477216, 0.017216346, 0.015599968, 0.010216846, 0.004885358, 0.000359876, -0.004049023, -0.011856031, -0.029122744, -0.031717586, -0.034376857, -0.024596436, -0.027526397, -0.025719128, -0.027455464, -0.021917388, -0.023850277, -0.018667385, -0.020816284, -0.01571195, -0.01125506, -0.005175736, -0.01321082, -0.010130471, -0.002057057, 0.00045061, 0.002799841, -0.000637095, 0.002714419, 0.006006198, 0.009073523, 0.016961139, 0.014254368, 0.015112063, 0.019291526, 0.019203908, 0.020704835, 0.031516826, 0.024975255, 0.034058951, 0.036606727, 0.034273769, 0.03603097, 0.039324328, 0.04171801, 0.04784778, 0.047176256, 0.046844024},
		{-0.072914232, -0.069884806, -0.066856251, -0.063679105, -0.060970757, -0.058256541, -0.055636343, -0.053168625, -0.050668556, -0.048855705, -0.046757591, -0.045002963, -0.04344436, -0.042474869, -0.041406714, -0.04067879, -0.040000702, -0.039857827, -0.039477778, -0.03995094, -0.040360128, -0.040920428, -0.041624395, -0.042687944, -0.043470051, -0.044959206, -0.046153545, -0.048126339, -0.049807852, -0.051570859, -0.053123862, -0.05552588, -0.057559167, -0.059481703, -0.061453435, -0.063259663, -0.065516292, -0.067156764, -0.069198989, -0.070872185, -0.013384177, -0.013276821, -0.013112936, -0.012256997, -0.012262508, -0.011569297, -0.010732399, -0.010723595, -0.010505972, -0.00964154, -0.008639217, -0.009196202, -0.008414463, -0.008058771, -0.008359555, -0.008318346, -0.006925149, -0.007191867, -0.008193954, -0.008161347, -0.008235123, -0.007935064, -0.008545761, -0.010069465, -0.010657852, -0.010944352, -0.012371675, -0.014184374, -0.015181485, -0.016575941, -0.018484762, -0.020187168, -0.023168964, -0.025879274, -0.027400048, -0.031123013, -0.033890483, -0.036997662, -0.040120958, -0.04292678, 0.096525038, 0.092934749, 0.085628699, 0.081626026, 0.076542216, 0.072823747, 0.068646052, 0.063360031, 0.061168476, 0.056764678, 0.053712336, 0.052365448, 0.050755086, 0.047815485, 0.046705367, 0.046081991, 0.045905136, 0.04451493, 0.043920079, 0.045935591, 0.045432405, 0.047422288, 0.05071613, 0.050736008, 0.05453908, 0.057175212, 0.060213021, 0.063537159, 0.0661462, 0.070461146, 0.075404204, 0.081130288, 0.083883994, 0.090946759, 0.096244259, 0.099547876, 0.107095604, 0.113126361, 0.117722433, 0.123263936},
		{-0.024565669, -0.023509505, -0.022346236, -0.021598882, -0.020762701, -0.019898411, -0.019344862, -0.018680244, -0.018305498, -0.017562289, -0.017216204, -0.017100258, -0.016706141, -0.016465226, -0.016399457, -0.016084019, -0.015676938, -0.016011056, -0.015777147, -0.015765651, -0.015341424, -0.015374001, -0.015425352, -0.015068111, -0.015576521, -0.015295216, -0.015415158, -0.015389288, -0.015693936, -0.015302355, -0.015506088, -0.015755001, -0.015931162, -0.015640129, -0.016437334, -0.016606435, -0.016558373, -0.017065733, -0.017546535, -0.017848904, 0.019771964, 0.01708725, 0.014944978, 0.012493819, 0.010325591, 0.008489734, 0.006575545, 0.004709977, 0.003010972, 0.001515147, 0.000169805, -0.001350218, -0.002439952, -0.003639648, -0.00449604, -0.00519925, -0.005883663, -0.006114867, -0.006773649, -0.006916231, -0.006701367, -0.006223853, -0.006073537, -0.005339218, -0.004264158, -0.002863738, -0.001722046, -0.000119477, 0.001657531, 0.004341426, 0.006826823, 0.009496407, 0.012741245, 0.015950887, 0.019631807, 0.023599648, 0.028331001, 0.032958853, 0.037538777, 0.043351909, -0.01402404, -0.011036704, -0.007700453, -0.004706476, -0.002761711, 0.00033997, 0.00304036, 0.005247572, 0.007578486, 0.00985501, 0.011773613, 0.013947062, 0.01460408, 0.016334435, 0.017822751, 0.019215961, 0.01974988, 0.019940032, 0.021100047, 0.021219967, 0.020709707, 0.020322066, 0.019663887, 0.019640766, 0.018063514, 0.017339583, 0.015946088, 0.014514286, 0.011898555, 0.009738179, 0.007874247, 0.005766399, 0.002663157, -0.000483927, -0.002894722, -0.006835031, -0.010023466, -0.014047764, -0.017639188, -0.021325608},
		{0.010523815, -0.000232037, -7.08E-05, 0.002499051, -0.001698591, -0.000215585, -0.002323292, -0.004558572, -0.010708117, -0.014856546, -0.017194183, -0.022215609, -0.028512628, -0.031886871, -0.027740011, -0.031962488, -0.039917374, -0.04086533, -0.049734778, -0.048116796, -0.051155837, -0.053794813, -0.063263027, -0.069423603, -0.067649611, -0.077655099, -0.078754832, -0.083992893, -0.088983418, -0.088942535, -0.090141844, -0.096849115, -0.099818834, -0.1041973, -0.106294137, -0.107103957, -0.106269839, -0.106241291, -0.114090696, -0.11669132, -0.14265202, -0.123750386, -0.120701569, -0.104300324, -0.105124536, -0.091199826, -0.0780205, -0.074006973, -0.065646782, -0.058812757, -0.04733813, -0.034332693, -0.028178226, -0.021873783, -0.013787291, -0.009770453, -0.008130334, 0.002421969, 0.014248215, 0.015549101, 0.022672361, 0.023144875, 0.026855627, 0.03337294, 0.032121444, 0.043318455, 0.043900341, 0.046234616, 0.048559825, 0.042043504, 0.045253917, 0.047712202, 0.048725864, 0.046070149, 0.044998591, 0.03952363, 0.036577151, 0.03163074, 0.025239372, 0.01563581, -0.084524909, -0.084946705, -0.085155262, -0.085201177, -0.085041801, -0.084827525, -0.084500342, -0.083965288, -0.083223824, -0.082345722, -0.08123484, -0.080047179, -0.078630951, -0.077058652, -0.075256387, -0.073440478, -0.071378435, -0.069217188, -0.066974301, -0.06456669, -0.062098505, -0.059573383, -0.056914304, -0.054297691, -0.051615201, -0.048897753, -0.046202458, -0.043539607, -0.040866943, -0.038357886, -0.035855832, -0.033511795, -0.031241911, -0.029110286, -0.027073612, -0.025279888, -0.023656371, -0.022176304, -0.020919357, -0.019849074},
		{-0.100740524, -0.096359566, -0.092130281, -0.087999734, -0.084032514, -0.0802176, -0.07653088, -0.072979357, -0.069769165, -0.066698801, -0.063744789, -0.061251016, -0.058932242, -0.056833962, -0.05496764, -0.053536943, -0.052275937, -0.051390539, -0.0507494, -0.050400736, -0.050323664, -0.050609071, -0.051095469, -0.051958952, -0.052991534, -0.054431524, -0.056015907, -0.057986437, -0.060162356, -0.062570553, -0.065167324, -0.06794993, -0.070927205, -0.074085179, -0.077541085, -0.081058473, -0.084666647, -0.088469921, -0.092327463, -0.096210977, 0.001603561, -3.69E-05, -0.002585893, -0.003437463, -0.005727081, -0.007881664, -0.010273122, -0.011432047, -0.013714495, -0.016249328, -0.017494271, -0.018806183, -0.021206087, -0.022369993, -0.023926268, -0.025459024, -0.027579463, -0.028701423, -0.030041915, -0.031217577, -0.031430405, -0.031664621, -0.034439786, -0.033503615, -0.034991639, -0.036507358, -0.035943421, -0.037022102, -0.038054879, -0.037892236, -0.039501667, -0.039577157, -0.039365312, -0.039937611, -0.041305639, -0.041468204, -0.041075488, -0.041779034, -0.041897887, -0.041435285, 0.08900468, 0.086065543, 0.082812387, 0.079099633, 0.076100182, 0.072960709, 0.070512716, 0.067978677, 0.064926505, 0.062801739, 0.060399595, 0.058621154, 0.056064449, 0.05514443, 0.053309458, 0.051962592, 0.051083924, 0.049798146, 0.049486195, 0.048635748, 0.048510055, 0.048593829, 0.048042706, 0.048498996, 0.04925017, 0.05014258, 0.05084511, 0.052066026, 0.053392877, 0.055163494, 0.056566666, 0.058652344, 0.060555414, 0.062955183, 0.065222394, 0.067434648, 0.069959674, 0.073365501, 0.075701434, 0.078767142},
		{0.085928367, 0.073054064, 0.078906166, 0.074315097, 0.064871574, 0.066220717, 0.059879746, 0.055333691, 0.054985917, 0.053065439, 0.044227903, 0.043520984, 0.035024458, 0.026191429, 0.027417911, 0.026314804, 0.014720447, 0.011810381, 0.015174173, 0.007176103, -0.000172545, -0.000902914, -0.008327363, -0.013434552, -0.011783041, -0.011280178, -0.016258257, -0.015713999, -0.017382406, -0.021002124, -0.025339841, -0.030649512, -0.032899395, -0.037094942, -0.036500428, -0.035239729, -0.036450218, -0.039389756, -0.042222134, -0.040467697, -0.113565752, -0.117476394, -0.121097691, -0.124019384, -0.126326408, -0.128549937, -0.12990927, -0.131067215, -0.131679912, -0.131761403, -0.131343939, -0.130407267, -0.129099572, -0.127327512, -0.125016533, -0.12241417, -0.119331638, -0.115838385, -0.111985731, -0.107765744, -0.103210444, -0.098337311, -0.093171282, -0.08773121, -0.082052074, -0.076126947, -0.070036244, -0.063755402, -0.057291544, -0.05073919, -0.044034939, -0.037280895, -0.030514786, -0.023593236, -0.016752625, -0.009804239, -0.003033447, 0.003781389, 0.010723492, 0.017285302, -0.046281904, -0.041237349, -0.043091398, -0.052881934, -0.053353882, -0.058419991, -0.059091732, -0.052162115, -0.050057541, -0.052873538, -0.057249192, -0.05492491, -0.059358634, -0.054386522, -0.050217703, -0.050904344, -0.045540183, -0.04245371, -0.049550739, -0.046398125, -0.038872692, -0.036621477, -0.034350521, -0.026445683, -0.022413433, -0.02636202, -0.021650365, -0.014658262, -0.007689249, -0.007876666, -0.000711973, -0.000775947, 0.008745039, 0.009465997, 0.016465987, 0.027129072, 0.033033245, 0.033402031, 0.041107017, 0.04037456},
		{-0.047389797, -0.04901234, -0.050165985, -0.053651529, -0.055874013, -0.057836169, -0.05942646, -0.061538265, -0.064116413, -0.066391871, -0.069877198, -0.072473054, -0.073822303, -0.076792102, -0.079968174, -0.082282948, -0.084973536, -0.087282033, -0.089515337, -0.090933487, -0.093904777, -0.096313059, -0.098446715, -0.100314507, -0.10242214, -0.104885365, -0.106515565, -0.107302779, -0.110237011, -0.111862904, -0.11343882, -0.114893664, -0.115734879, -0.118184437, -0.120132482, -0.12156992, -0.122250332, -0.124885614, -0.125188095, -0.128166733, 0.12194631, 0.115782935, 0.108742139, 0.104008315, 0.097699944, 0.091750897, 0.085218507, 0.074461573, 0.069445165, 0.06466854, 0.060026894, 0.05300025, 0.046200748, 0.040869348, 0.037442828, 0.032401065, 0.027599705, 0.02487081, 0.02132916, 0.016546617, 0.015589234, 0.011451124, 0.005608069, 0.005842204, 0.003316559, 0.000612011, 0.000857377, 0.002382514, -0.00171133, 0.002031891, -0.001556717, 0.003480223, 0.004085324, 0.003752059, 0.00445079, 0.010582719, 0.010945523, 0.015283974, 0.020992361, 0.023966078, -0.007841515, -0.008957687, -0.009862444, -0.010687789, -0.011687084, -0.013342436, -0.013839946, -0.015033481, -0.016621412, -0.018449215, -0.019774351, -0.021518906, -0.023049514, -0.025162982, -0.026467547, -0.029428823, -0.030576252, -0.032482906, -0.035010554, -0.037699115, -0.039482339, -0.041061455, -0.04424102, -0.046344223, -0.04839818, -0.051043821, -0.053436659, -0.055729038, -0.058629343, -0.061885367, -0.063885796, -0.066297814, -0.069060011, -0.071534407, -0.073835452, -0.076795141, -0.079062926, -0.081134458, -0.084628097, -0.086793919},
		{0.023756751, 0.024254897, 0.014055793, 0.014435893, 0.017501836, 0.012250894, 0.009589017, 0.007956402, 0.006124754, 6.88E-05, -0.002831894, -0.001038495, -0.007566311, -0.002666242, -0.006587761, -0.008168272, -0.00298716, -0.006557046, -0.007942479, -0.011653711, -0.008955385, 0.001094251, -0.000244986, -0.001502435, -0.008488806, -0.003095532, -0.005018997, 0.006455855, 0.00362945, 0.009801281, 0.004192552, 0.002783353, 0.001933159, 0.007673783, 0.007733965, 0.008238278, 0.016717531, 0.019464425, 0.021669357, 0.025740914, -0.056893166, -0.056250553, -0.053366837, -0.059302445, -0.057189898, -0.058682651, -0.058104493, -0.05660729, -0.054816377, -0.059386386, -0.060915396, -0.058785917, -0.061624585, -0.056975399, -0.058593291, -0.060449654, -0.061296729, -0.062238634, -0.063633617, -0.06566991, -0.064772114, -0.064987502, -0.065108648, -0.066127113, -0.070123742, -0.068207155, -0.067964463, -0.069886649, -0.073081186, -0.074206749, -0.06995812, -0.074444171, -0.071234054, -0.072249718, -0.073053213, -0.070609943, -0.074213, -0.075554656, -0.074867207, -0.075157438, -0.074990913, -0.072604969, -0.070625182, -0.068240428, -0.066225089, -0.063412025, -0.061824551, -0.059667607, -0.058244794, -0.057085092, -0.055140446, -0.05383325, -0.052974261, -0.052082661, -0.051100184, -0.050333197, -0.05037559, -0.049319313, -0.049805205, -0.049151304, -0.049382297, -0.050515908, -0.051112816, -0.051958343, -0.053114727, -0.055149156, -0.055793537, -0.058233427, -0.059424332, -0.062014062, -0.064127214, -0.066579258, -0.070661724, -0.072554196, -0.076850027, -0.080114039, -0.083269298, -0.087115004, -0.090066975, -0.094130486},
		{0.025949085, 0.026386556, 0.026616807, 0.026592461, 0.026317899, 0.027163737, 0.026505953, 0.02693622, 0.026355387, 0.026930473, 0.026668337, 0.027096251, 0.027045536, 0.026590329, 0.026442782, 0.026331757, 0.026262792, 0.026333971, 0.026608971, 0.026466967, 0.026419166, 0.026393088, 0.0265588, 0.026477525, 0.026720979, 0.027582193, 0.027803298, 0.028405921, 0.0280881, 0.029075804, 0.02935681, 0.030139451, 0.031022207, 0.032192967, 0.033115482, 0.033923689, 0.03517115, 0.035679808, 0.036991996, 0.038456959, -0.049373314, -0.045997778, -0.041560208, -0.037066334, -0.033349568, -0.030868594, -0.027108391, -0.023686895, -0.02127597, -0.019585723, -0.018224773, -0.016691339, -0.014371022, -0.012865901, -0.012682203, -0.010875969, -0.011233873, -0.010850767, -0.010296356, -0.012123795, -0.01215251, -0.013986527, -0.014895827, -0.01548303, -0.016893257, -0.019553192, -0.021269174, -0.024330608, -0.025249809, -0.029413985, -0.030792701, -0.033629592, -0.03752041, -0.040847592, -0.043860307, -0.046720111, -0.048139914, -0.053134882, -0.055377404, -0.059101939, 0.028970674, 0.02935231, 0.029822959, 0.030646852, 0.030947546, 0.031349321, 0.031774301, 0.032211636, 0.032276623, 0.032750561, 0.033046737, 0.033311253, 0.033265653, 0.033581399, 0.033439735, 0.033435295, 0.033403586, 0.033258652, 0.033065864, 0.033035339, 0.032956545, 0.032837822, 0.032492761, 0.031867872, 0.031741186, 0.031329491, 0.030944943, 0.030142793, 0.029785916, 0.029098341, 0.028607259, 0.027996168, 0.027193089, 0.026362421, 0.025740295, 0.024725334, 0.024009144, 0.023219859, 0.022319101, 0.021225789},
		{0.055891389, 0.090700469, 0.072002678, 0.040147798, 0.045612054, 0.023661694, 0.02473672, 0.026453493, 0.031588062, 0.03872415, 0.052299209, 0.041892016, 0.009204058, 0.038924101, 0.021334642, 0.031842431, 0.03646227, 0.050416799, 0.023590886, 0.027084798, 0.023911564, 0.057224959, 0.043213463, 0.044019836, 0.033876555, 0.038551944, 0.038093121, 0.06602776, 0.041533356, 0.053386744, 0.072581902, 0.054405818, 0.050260928, 0.083730224, 0.08010957, 0.091044142, 0.098771359, 0.083341845, 0.073366014, 0.071482455, 0.067027796, 0.09036727, 0.076605065, 0.047997829, 0.082613087, 0.072841241, 0.058811795, 0.049376285, 0.054113029, 0.076743847, 0.026842602, 0.060594334, 0.049843903, 0.064882597, 0.057178204, 0.010343822, 0.010859338, 0.032764262, 0.014125335, 0.038817423, 0.034268713, 0.002180399, 0.023797245, 0.027702697, 0.023228304, 0.048183919, 0.005022655, 0.048620493, 0.007324162, 0.048478805, 0.046455906, 0.009944739, 0.05674697, 0.032467058, 0.052501212, 0.036065997, 0.071951801, 0.057713056, 0.051011034, 0.071300599, 0.08562987, 0.079420984, 0.079674665, 0.074365388, 0.070374188, 0.068659455, 0.066463789, 0.064710117, 0.06015908, 0.055868367, 0.053202739, 0.053275716, 0.048974659, 0.048682834, 0.046496778, 0.04392871, 0.041050099, 0.038503952, 0.038052134, 0.034181738, 0.033334481, 0.034902939, 0.03397194, 0.029427298, 0.032732244, 0.030576256, 0.03095185, 0.031855123, 0.030516613, 0.032470803, 0.033560908, 0.035293621, 0.035415532, 0.040485117, 0.044360578, 0.045123727, 0.046533814, 0.051755947, 0.057440043, 0.06011249},
		{0.033781568, 0.032505906, 0.031345821, 0.030281164, 0.029327439, 0.028490467, 0.027781016, 0.027196104, 0.026752832, 0.026454609, 0.026287514, 0.026270025, 0.026392579, 0.026660162, 0.027078618, 0.027633645, 0.028328141, 0.029158747, 0.030123041, 0.031213141, 0.032424777, 0.033751143, 0.035185778, 0.036721887, 0.038347461, 0.040056978, 0.041839958, 0.043686207, 0.04559496, 0.047542226, 0.049526314, 0.051538937, 0.053567542, 0.055605328, 0.057636225, 0.059657662, 0.061657677, 0.063631332, 0.065564969, 0.067450584, -0.022248625, -0.022045108, -0.022118337, -0.0218142, -0.021668447, -0.021290988, -0.021324115, -0.020874306, -0.020461727, -0.020295607, -0.01977848, -0.019516564, -0.019444089, -0.018886151, -0.018693959, -0.018294699, -0.017702363, -0.017422394, -0.0171982, -0.016580324, -0.016067349, -0.015796095, -0.01552, -0.01498551, -0.014502277, -0.013984404, -0.013476236, -0.012969182, -0.012452654, -0.011948957, -0.011314096, -0.010604185, -0.009820834, -0.009148516, -0.008390552, -0.007324421, -0.00654758, -0.00533099, -0.004413013, -0.003313415, -0.0151648, -0.013351081, -0.011543954, -0.009850618, -0.008137839, -0.006541399, -0.004804705, -0.00327739, -0.001806, -0.000305751, 0.001068403, 0.002330748, 0.003598178, 0.004635123, 0.00561252, 0.006532907, 0.007366742, 0.00806816, 0.008696764, 0.009124202, 0.009571697, 0.009728331, 0.009865424, 0.009889699, 0.009674031, 0.009484922, 0.009033053, 0.00844735, 0.007801112, 0.007061813, 0.006117713, 0.005035662, 0.003981312, 0.002717313, 0.00129352, -0.000213182, -0.001917001, -0.003585149, -0.005436954, -0.007394233},
		{0.023352928, 0.032131899, 0.016872854, 0.021549569, 0.023412711, 0.020747224, 0.004891263, 0.001734669, -0.002253442, -0.001665351, 0.000725107, 0.004934465, -0.003760106, 0.001729907, -0.010913857, 0.004212458, 0.001257993, -0.018003462, 0.001665665, -0.000927667, -0.009611362, -3.03E-05, -0.006020259, -0.007608392, 0.006124302, 0.00306719, 0.00136775, 0.00028001, -0.007781774, -0.001494233, 0.007863823, 0.004468241, 0.021879526, 0.028383181, 0.018706138, 0.029803936, 0.031332681, 0.045759491, 0.040862963, 0.037851844, -0.15623182, -0.141234837, -0.129756724, -0.120478753, -0.104120454, -0.099045754, -0.084484602, -0.078747926, -0.067671015, -0.060993433, -0.050039625, -0.042985157, -0.03540268, -0.028106513, -0.025756246, -0.020950358, -0.018208052, -0.014701286, -0.008971888, -0.00654785, -0.008643193, -0.009185441, -0.005733552, -0.011523515, -0.011068386, -0.015374367, -0.016596056, -0.024937501, -0.026753211, -0.033580728, -0.042020952, -0.045755289, -0.056253954, -0.066244114, -0.07441506, -0.087539556, -0.09719024, -0.109462989, -0.122705664, -0.130967261, 0.136410681, 0.129538241, 0.12185978, 0.117156638, 0.109399293, 0.101122396, 0.092596492, 0.084574169, 0.077298834, 0.071814729, 0.062769699, 0.060763577, 0.051323646, 0.047434417, 0.045117009, 0.043843845, 0.040917434, 0.037839977, 0.033805585, 0.034154902, 0.030637303, 0.03011246, 0.03298384, 0.033771391, 0.032379768, 0.036458518, 0.040875087, 0.044035953, 0.04700928, 0.052355699, 0.05440317, 0.060026145, 0.06674066, 0.071828022, 0.077417101, 0.083729894, 0.088842051, 0.097891019, 0.101949746, 0.110794154},
		{-0.02339587, -0.021896294, -0.020508715, -0.01924893, -0.01810616, -0.017079313, -0.016154553, -0.015334059, -0.014602257, -0.013987137, -0.013460264, -0.013023042, -0.012664267, -0.012379945, -0.01218736, -0.012063817, -0.012007621, -0.012020469, -0.012097866, -0.012234583, -0.012440514, -0.012700403, -0.013027876, -0.013416235, -0.013868484, -0.014358491, -0.014919976, -0.015556321, -0.016255411, -0.017009148, -0.01782121, -0.018718135, -0.019666299, -0.020691848, -0.021806589, -0.023005254, -0.024236737, -0.025589608, -0.027002111, -0.028505023, 0.025759936, 0.022063357, 0.018544911, 0.015188693, 0.012013856, 0.009021435, 0.006195254, 0.003566482, 0.001135978, -0.001128669, -0.003188335, -0.005035423, -0.006699598, -0.008150118, -0.009386058, -0.010400291, -0.011183906, -0.011748497, -0.012049679, -0.012129757, -0.011943933, -0.01150079, -0.010773601, -0.009781469, -0.008498559, -0.006920964, -0.005040272, -0.002848422, -0.000347191, 0.002480059, 0.005635045, 0.009126412, 0.012948965, 0.017125167, 0.021635798, 0.02650879, 0.031714301, 0.037252853, 0.043166821, 0.049396317, -0.015726313, -0.012370267, -0.009121562, -0.005941275, -0.002898522, 7.17E-05, 0.002938219, 0.005570515, 0.008132859, 0.01049949, 0.012686581, 0.014693936, 0.016418868, 0.018065412, 0.019418613, 0.020592335, 0.021554787, 0.022252623, 0.022634629, 0.022871031, 0.022910295, 0.022608352, 0.022072613, 0.021248356, 0.020328791, 0.01905985, 0.017507198, 0.015702937, 0.013768246, 0.011571481, 0.009137881, 0.006423391, 0.003535039, 0.000505179, -0.00280795, -0.006273311, -0.009830764, -0.013612834, -0.01756521, -0.021706271},
		{-0.048102651, -0.043644136, -0.043469251, -0.034792968, -0.037628031, -0.03776818, -0.036907901, -0.032474745, -0.033581032, -0.025163483, -0.028203025, -0.022033904, -0.021771394, -0.026939119, -0.023896494, -0.02188749, -0.018455184, -0.021985575, -0.014413425, -0.011592013, -0.01147271, -0.01327004, -0.00849293, -0.014479804, -0.012025441, -0.003363357, -0.012224844, -0.011050104, -0.00963844, -0.000941636, -0.000157836, -0.005628828, -0.003498238, 0.003162225, 0.004241428, -0.002097385, 0.004841996, 0.004973861, 0.003175608, 0.00017284, 0.014493886, 0.015101252, 0.017835137, 0.003493585, 0.00228313, 0.003722321, 0.010246256, -0.001385293, 0.002579311, -0.002953474, -0.000692148, -0.00271006, -0.003825656, 7.97E-05, -0.012823393, -0.002561648, 0.001234341, -0.007933399, -0.009837763, -0.007134272, -0.004681231, -0.0094729, -0.001605552, -0.003433154, 0.003144044, -0.002508423, -0.008963665, 0.006052788, 0.006000937, 0.01000323, 0.007485169, 0.00524558, 0.007217105, 0.019667613, 0.015957164, 0.033177464, 0.033813874, 0.046134937, 0.048367599, 0.045479622, -0.016623955, -0.010157249, -0.008407335, -0.002087334, -0.007825173, -0.001999648, -0.002637271, 0.003310208, 0.008109808, 0.00707153, 0.008270966, 0.010302049, 0.012775853, 0.018415735, 0.019218424, 0.02169747, 0.023348356, 0.024588071, 0.020256309, 0.020497367, 0.025900743, 0.016659423, 0.017743084, 0.021779997, 0.020604142, 0.018940107, 0.018871092, 0.013136316, 0.014214215, 0.008311634, 0.009715281, 0.007980459, 0.005409772, 0.003658717, -0.000540242, -8.28E-05, -0.007737203, -0.008688478, -0.017644432, -0.020215895},
		{-0.015955925, -0.016507547, -0.017133194, -0.01789285, -0.018503442, -0.019473971, -0.020213863, -0.020892825, -0.021859428, -0.022885202, -0.023660627, -0.024534323, -0.025566266, -0.026441186, -0.027258572, -0.028307808, -0.029344337, -0.030209455, -0.031209934, -0.032120967, -0.03305704, -0.034096155, -0.035012267, -0.035794451, -0.036678629, -0.037534072, -0.038329297, -0.039140544, -0.039800462, -0.04057426, -0.041238217, -0.04193497, -0.042548826, -0.043080621, -0.043504769, -0.043984758, -0.044114389, -0.044630913, -0.044721603, -0.045026102, 0.017189057, 0.016783996, 0.016217994, 0.01661466, 0.015076373, 0.01392299, 0.013555634, 0.014229636, 0.012379605, 0.013294354, 0.011789824, 0.01069662, 0.011201232, 0.008702211, 0.009320191, 0.007326554, 0.007205692, 0.006939738, 0.005313668, 0.005311803, 0.003561042, 0.003428536, 0.00328057, 0.001415999, 0.00035503, 0.000294982, 0.000201316, -9.88E-05, -0.002392493, -0.002149515, -0.00388149, -0.003781191, -0.003043144, -0.004858009, -0.004889413, -0.005937616, -0.004717851, -0.004233849, -0.005224043, -0.005827879, 0.005903095, 0.004473508, 0.003258426, 0.001545181, 0.00058269, -0.000933675, -0.002101253, -0.003562074, -0.004600829, -0.005574334, -0.006797444, -0.007442644, -0.008770218, -0.009165033, -0.00995557, -0.0108743, -0.011299799, -0.011605993, -0.012240986, -0.012223228, -0.012495934, -0.012784452, -0.01266012, -0.012812102, -0.012718178, -0.012231074, -0.011796195, -0.011686036, -0.01099431, -0.010120234, -0.009594058, -0.00867844, -0.007982534, -0.006882811, -0.005900921, -0.004807252, -0.003947077, -0.002512829, -0.001104094, 0.000148223},
		{0.103637241, 0.100743653, 0.096344248, 0.084883438, 0.083469184, 0.078525648, 0.075265802, 0.072337984, 0.065678677, 0.063246699, 0.058595947, 0.053560479, 0.053922536, 0.045081573, 0.046910346, 0.040319028, 0.043461109, 0.037887547, 0.04137038, 0.036639754, 0.035082812, 0.037310461, 0.031481525, 0.034936345, 0.02860292, 0.028342469, 0.035170781, 0.03200143, 0.031387943, 0.033355091, 0.032127722, 0.039368118, 0.035739652, 0.03824775, 0.039030504, 0.044582892, 0.043362848, 0.045700528, 0.052210596, 0.052223609, -0.012285376, -0.013935724, -0.007783781, -0.007014516, -0.001165123, 0.000610683, 0.004287676, 0.006685512, 0.010211941, 0.012008426, 0.01731543, 0.018787647, 0.022805923, 0.024119228, 0.027969808, 0.030939112, 0.031074651, 0.034187836, 0.035613782, 0.038933779, 0.041786466, 0.040471564, 0.044120554, 0.047743562, 0.050235997, 0.052202297, 0.047457112, 0.053401686, 0.051471078, 0.051033568, 0.055345192, 0.051672325, 0.050307405, 0.054029785, 0.052180781, 0.051767224, 0.054137348, 0.051722447, 0.052793085, 0.045841624, 0.026065809, 0.027563302, 0.024119223, 0.020789683, 0.021123753, 0.017475643, 0.019056652, 0.01496607, 0.01212366, 0.013156207, 0.009650369, 0.012669096, 0.009135661, 0.010915044, 0.006951827, 0.006365299, 0.008118004, 0.010235485, 0.006231924, 0.007255104, 0.010103265, 0.008833713, 0.012445094, 0.012469706, 0.012583797, 0.015233209, 0.020367729, 0.022576566, 0.021069855, 0.026249744, 0.028432639, 0.032247121, 0.03675356, 0.039689233, 0.042536396, 0.048490277, 0.051580569, 0.057495815, 0.065222036, 0.067782253},
		{-0.017338388, -0.019053764, -0.023299094, -0.024873675, -0.02661364, -0.025397657, -0.028616079, -0.030119892, -0.032104531, -0.032065297, -0.033836125, -0.034098665, -0.034824496, -0.036898604, -0.037119148, -0.037208989, -0.037214494, -0.038312237, -0.040685707, -0.040518732, -0.041996743, -0.040452089, -0.043591057, -0.043984359, -0.043739368, -0.043930812, -0.041857695, -0.044709151, -0.044597327, -0.043042874, -0.043294172, -0.04453773, -0.047463131, -0.045505292, -0.04589894, -0.04709807, -0.048197374, -0.048184099, -0.046435258, -0.048707464, 0.060639933, 0.053755871, 0.050125712, 0.045605565, 0.039163592, 0.037731683, 0.031805592, 0.027488892, 0.027111061, 0.023736462, 0.022248794, 0.02072662, 0.018352156, 0.016461864, 0.017221084, 0.013763955, 0.013808421, 0.016924077, 0.01547982, 0.017352588, 0.01827392, 0.020086053, 0.020501922, 0.02396515, 0.02927885, 0.028828252, 0.033427447, 0.037018607, 0.040449041, 0.042911626, 0.045560227, 0.051686612, 0.052581746, 0.055528422, 0.062162234, 0.064839074, 0.068758363, 0.071883809, 0.074902399, 0.080247354, -0.034767122, -0.036331809, -0.037977721, -0.039434516, -0.040169648, -0.041379911, -0.041817727, -0.042474784, -0.043845862, -0.044798693, -0.045152391, -0.044813424, -0.045783052, -0.046147196, -0.045669052, -0.045810649, -0.04520083, -0.04531051, -0.044785165, -0.044111335, -0.043409733, -0.041314317, -0.041033335, -0.039593617, -0.038701158, -0.03731314, -0.035957009, -0.033741217, -0.031935087, -0.030116917, -0.028325398, -0.026476794, -0.024166859, -0.020940055, -0.018796313, -0.017132014, -0.01337381, -0.011008832, -0.008561914, -0.005127078},
		{-0.030292401, -0.02860734, -0.029219616, -0.032325091, -0.034705725, -0.036092405, -0.039729969, -0.038917341, -0.038519819, -0.041847481, -0.042914493, -0.04064829, -0.044539189, -0.043118129, -0.040231308, -0.040548487, -0.045578295, -0.040986666, -0.041128273, -0.041646851, -0.041040618, -0.043618268, -0.042926103, -0.043826753, -0.04039287, -0.040160026, -0.040987468, -0.03887274, -0.035344581, -0.035038787, -0.03930987, -0.034882097, -0.035823074, -0.034064451, -0.033384946, -0.034505718, -0.03675235, -0.035829081, -0.031628623, -0.034996216, 0.072279291, 0.072137995, 0.053859776, 0.061160362, 0.049639415, 0.046819437, 0.036670664, 0.040477343, 0.030149476, 0.024746521, 0.031098257, 0.017091817, 0.01596325, 0.020477139, 0.01318093, 0.008002747, 0.020372001, 0.006431268, 0.005321859, 0.014613574, 0.014994887, 0.016899846, 0.020312771, 0.022671135, 0.013038964, 0.024951354, 0.022107034, 0.019956282, 0.02456923, 0.024647217, 0.028924098, 0.041280333, 0.036269941, 0.051447839, 0.048115317, 0.056117108, 0.0587748, 0.056902715, 0.060115127, 0.074973213, -0.048479296, -0.047237539, -0.046163705, -0.04384916, -0.04242661, -0.041904932, -0.041037355, -0.039989899, -0.038147446, -0.038388984, -0.036955452, -0.035623575, -0.036391641, -0.03431633, -0.033836357, -0.03442494, -0.034107516, -0.033938251, -0.033149169, -0.033939592, -0.034534399, -0.034804985, -0.035306084, -0.035749991, -0.035646615, -0.035966284, -0.03691062, -0.037429421, -0.039394442, -0.040576941, -0.041293597, -0.042756045, -0.044251306, -0.045475713, -0.047082027, -0.049795396, -0.050542771, -0.053436865, -0.054919613, -0.057114499},
		{0.046314646, 0.054558922, 0.039512182, 0.018483166, 0.028227271, 0.021673479, 0.034640014, 0.010303419, 0.026095488, 0.040257341, -0.008856915, -0.010456611, 0.004975006, 0.037377707, 0.029407823, 0.017644348, 0.023156821, 0.008224064, -0.0100197, 0.02854154, 0.012983404, 0.016379512, -0.01071143, -0.011887395, -0.024987459, -0.010754889, 0.008356136, -0.026220904, -0.016093153, 0.010116908, 0.027239287, 0.027976871, 0.019553184, -0.030208767, -0.025815867, 0.019621308, -0.028582594, 0.006073045, 0.034607249, 0.025601688, 0.058763967, 0.045357545, 0.035684827, 0.040278288, 0.023872312, 0.025104281, 0.006397569, 0.020383646, 0.02794654, -0.009106886, 0.019878502, -0.013019067, -0.011704201, 0.003957795, 0.00034124, -0.021093696, -0.002265377, -0.026255731, -0.018253248, -0.036649043, -0.010486124, -0.014316885, -0.028469308, -0.007853987, -0.013985283, -0.016373474, -0.009641328, -0.016650431, -0.009642702, 0.006516591, -0.000443978, 0.001361862, 0.023770862, 0.014190894, 0.028011529, 0.04476454, 0.04009475, 0.067964153, 0.066447889, 0.064909195, 0.017884881, 0.017399116, 0.013924257, 0.009396393, 0.017240454, 0.014645913, 0.030838326, 0.025038353, 0.022700484, 0.033896277, 0.022725467, 0.02341118, 0.038956102, 0.037857949, 0.035644355, 0.044265933, 0.037610361, 0.038923463, 0.039616651, 0.040562139, 0.049346238, 0.041104427, 0.051175427, 0.038847691, 0.047483147, 0.041305424, 0.044654156, 0.045840732, 0.046380054, 0.036760628, 0.041531799, 0.046403053, 0.032646291, 0.041107809, 0.033064645, 0.036683368, 0.024865192, 0.029640676, 0.030736707, 0.023603184},
		{0.028820894, 0.030814574, 0.031357255, 0.033034969, 0.034947827, 0.036254613, 0.036843891, 0.037598561, 0.03929646, 0.039079254, 0.039497042, 0.041006886, 0.041557254, 0.041642052, 0.042132773, 0.041935507, 0.042325012, 0.042073512, 0.041206366, 0.041191737, 0.041190792, 0.039798732, 0.039516641, 0.038246098, 0.038196211, 0.038285189, 0.037021468, 0.035919899, 0.036398324, 0.035290831, 0.035037635, 0.034144645, 0.03395635, 0.031925853, 0.033110589, 0.031563786, 0.032010999, 0.031477408, 0.032015922, 0.031000151, -0.069558868, -0.066572927, -0.060884143, -0.052896285, -0.049540049, -0.044679722, -0.038771418, -0.034190171, -0.031963972, -0.02842176, -0.025330711, -0.020672243, -0.019700314, -0.016767031, -0.015920769, -0.012212464, -0.010922108, -0.012237358, -0.010472916, -0.011429011, -0.012139719, -0.011579659, -0.012890625, -0.014055367, -0.014905037, -0.017737098, -0.019880417, -0.021711182, -0.023468834, -0.029070897, -0.029309063, -0.035605107, -0.038034489, -0.04213116, -0.045005942, -0.049746528, -0.053034437, -0.059174601, -0.062305299, -0.067936488, 0.046993131, 0.045553896, 0.044065309, 0.042589692, 0.041606134, 0.040336473, 0.039135202, 0.037385898, 0.036752206, 0.035563078, 0.034690688, 0.03332178, 0.032547507, 0.032208345, 0.032059829, 0.031037947, 0.030782689, 0.031185209, 0.03098185, 0.030960879, 0.031680687, 0.031954225, 0.032332036, 0.032949611, 0.033878767, 0.035090001, 0.035715048, 0.03745593, 0.038488707, 0.039954924, 0.041241967, 0.042868217, 0.044856599, 0.047400564, 0.049456088, 0.05116737, 0.053402891, 0.055562793, 0.058176732, 0.060189519},
		{-0.043665435, -0.044099726, -0.036084253, -0.034005917, -0.03561509, -0.025258318, -0.031023386, -0.026588575, -0.017105834, -0.019074554, -0.012177255, -0.010235266, -0.014203558, -0.010820244, -0.009589243, -0.003609234, -0.006609927, -0.003470309, -0.00579393, -0.003197683, -0.006565147, 0.001599296, -0.002315755, -0.002963438, -0.006696527, -0.00167868, -0.007492268, -0.004099667, -0.011783083, -0.013593423, -0.010463392, -0.009500468, -0.01482655, -0.018890957, -0.019259212, -0.02067817, -0.013699492, -0.017774496, -0.026453888, -0.024256849, -0.048431808, -0.040901792, -0.038391499, -0.036489958, -0.031295206, -0.029730186, -0.02579038, -0.025657912, -0.01966446, -0.015680072, -0.013746633, -0.010964861, -0.006946453, -0.010061953, -0.004768438, -0.009361247, -0.003694, -0.003064521, 0.003081931, 0.006380541, 0.005301082, 0.000643247, -0.000638785, 0.002501827, -2.84E-05, 0.002134753, -0.000367847, 0.002088141, -0.003410316, -0.007965711, -0.004032896, -0.006125768, -0.017238605, -0.01491394, -0.019111045, -0.029198213, -0.036793119, -0.040260108, -0.047709489, -0.051665413, -0.010359297, -0.011561721, -0.012272769, -0.012823437, -0.014211431, -0.015184298, -0.015955898, -0.016734414, -0.017698716, -0.019129355, -0.020185807, -0.020933338, -0.022170593, -0.023148977, -0.024024615, -0.025550556, -0.026360801, -0.027322389, -0.028150015, -0.029009912, -0.030008842, -0.030761955, -0.031591977, -0.031903306, -0.03301711, -0.033284186, -0.034293937, -0.034657281, -0.035355842, -0.035532392, -0.035967446, -0.03616719, -0.036210247, -0.036216065, -0.036399408, -0.036806734, -0.036763575, -0.036256008, -0.036581387, -0.036350707},
		{0.028393337, 0.033480168, 0.032727918, 0.033427969, 0.036096394, 0.03612842, 0.037289605, 0.044271938, 0.045972455, 0.048907103, 0.051158237, 0.054896765, 0.059481125, 0.061393063, 0.070184201, 0.073271903, 0.076733237, 0.080753696, 0.0832316, 0.091831289, 0.097554767, 0.100266082, 0.106699986, 0.112336004, 0.113476666, 0.121630384, 0.124523274, 0.129725761, 0.134016718, 0.141747338, 0.14237845, 0.151128956, 0.155539844, 0.158577091, 0.163004148, 0.166964029, 0.17277879, 0.175554037, 0.181250511, 0.183653664, -0.152462597, -0.144541446, -0.131131381, -0.135269825, -0.119089644, -0.100904604, -0.108751033, -0.100333469, -0.097434639, -0.073868833, -0.066195426, -0.074230179, -0.052789121, -0.062967734, -0.056410226, -0.049228016, -0.034042928, -0.038469916, -0.02194018, -0.030086765, -0.028661311, -0.018119026, -0.002102444, -0.002852584, 0.00119968, -0.002789167, -0.011357399, -0.000923144, -0.008606554, -6.73E-06, -0.004849867, -0.010551824, -0.018736106, -0.025536196, -0.015048495, -0.030091808, -0.019981327, -0.041236959, -0.034541285, -0.046218712, -0.030812117, -0.024215329, -0.026377722, -0.025170548, -0.014996964, -0.015377154, -0.012656184, -0.00640782, -0.003940791, -0.005748523, -0.002380867, 0.011709502, 0.0107025, 0.012178449, 0.020379687, 0.022802653, 0.027036124, 0.031142421, 0.025333839, 0.032701624, 0.028931808, 0.032663208, 0.041124021, 0.047050845, 0.045134494, 0.049229098, 0.049165327, 0.050016136, 0.059087043, 0.055410779, 0.060434089, 0.060125816, 0.060177237, 0.059058343, 0.06615236, 0.068535085, 0.063257325, 0.062281089, 0.067491451, 0.069180856},
		{0.033025929, 0.032666655, 0.031437939, 0.032443349, 0.03199945, 0.032555876, 0.030920827, 0.032986469, 0.033130222, 0.030371812, 0.03148808, 0.032067649, 0.030076037, 0.030004333, 0.030187432, 0.029102335, 0.030666489, 0.029150892, 0.029619445, 0.029399668, 0.027889475, 0.027181032, 0.02751402, 0.027910293, 0.027863456, 0.025863307, 0.026463572, 0.02614392, 0.027164927, 0.026795782, 0.02563133, 0.027283335, 0.025518088, 0.026908973, 0.027307716, 0.027562984, 0.028916103, 0.028918289, 0.032664398, 0.031935192, -0.064811347, -0.059106947, -0.054810407, -0.049947655, -0.043317419, -0.038199745, -0.033453335, -0.029528479, -0.024272011, -0.020530149, -0.017922244, -0.01343188, -0.011220364, -0.011888909, -0.008436442, -0.007052001, -0.006642597, -0.00310827, -0.005361439, -0.003006366, -0.003933327, -0.004852131, -0.004884901, -0.008069041, -0.006178567, -0.010778354, -0.013940798, -0.016080669, -0.018106699, -0.022141539, -0.024804645, -0.028536718, -0.029934613, -0.033961204, -0.041053214, -0.042716548, -0.048721522, -0.055776731, -0.06084846, -0.066577057, 0.042026767, 0.040650135, 0.038911252, 0.037308077, 0.035187881, 0.033845488, 0.032301339, 0.031297026, 0.029837471, 0.028673402, 0.027258775, 0.026512446, 0.025999394, 0.024912578, 0.023902109, 0.024623503, 0.023694636, 0.024298156, 0.024639029, 0.024610786, 0.025080948, 0.024442536, 0.025902193, 0.026440097, 0.027669939, 0.028935624, 0.029189493, 0.030627832, 0.032319584, 0.034448715, 0.036060494, 0.038331085, 0.040856348, 0.042604916, 0.044409523, 0.046866382, 0.049854259, 0.052774498, 0.054047023, 0.056944862},
		{-0.055331987, -0.056485066, -0.056279815, -0.056499004, -0.057249231, -0.056495651, -0.057223227, -0.057268816, -0.056488654, -0.057244794, -0.056438133, -0.055598424, -0.056412643, -0.055196663, -0.054639977, -0.054522003, -0.054055916, -0.05328067, -0.052888869, -0.051229937, -0.050448246, -0.049302289, -0.049001404, -0.047370067, -0.046363601, -0.045702155, -0.043678075, -0.042421665, -0.041141759, -0.039719839, -0.0382776, -0.037256266, -0.035210208, -0.033778213, -0.031191035, -0.030601358, -0.02908964, -0.028038933, -0.026135746, -0.023560427, 0.008081023, 0.007200197, 0.006222346, 0.004047428, 0.003540827, 0.003222053, 0.00135402, 0.001547924, 0.000915259, 9.16E-05, -0.001712643, -0.002343737, -0.001834517, -0.003583338, -0.002676788, -0.003930671, -0.003228209, -0.003848953, -0.00366336, -0.004471459, -0.003771785, -0.004268786, -0.003634433, -0.002292083, -0.002762285, -0.003185754, -0.002588792, -0.003038691, -0.00205417, -0.002313105, -0.001048306, -0.001018602, 0.000506499, 0.001013132, 0.000972881, 0.001733089, 0.004366661, 0.005181883, 0.005848823, 0.006421096, 0.049806867, 0.046679173, 0.045372785, 0.043511005, 0.040744559, 0.039248349, 0.036751066, 0.035030152, 0.033583892, 0.032762432, 0.031331033, 0.030892087, 0.028631758, 0.028833083, 0.028392068, 0.027154996, 0.027350415, 0.026728021, 0.026621286, 0.026854291, 0.0272668, 0.027240076, 0.02869522, 0.028808666, 0.02968324, 0.031711158, 0.032909577, 0.034068237, 0.036247573, 0.037909331, 0.03950007, 0.042439151, 0.044417502, 0.046822412, 0.050047295, 0.052734741, 0.055265548, 0.058389801, 0.062082835, 0.066167813},
		{-0.112751592, -0.103968804, -0.107657754, -0.103806871, -0.102150092, -0.095200419, -0.096362849, -0.09047727, -0.089186395, -0.090758995, -0.082802529, -0.08686376, -0.083774374, -0.082947915, -0.075070401, -0.080616574, -0.076487007, -0.078618258, -0.078219398, -0.077777419, -0.0720521, -0.072983811, -0.071652505, -0.073530714, -0.07708071, -0.077133555, -0.076788185, -0.072609161, -0.076600179, -0.079211496, -0.074727114, -0.074979817, -0.074815339, -0.080983016, -0.077244939, -0.081075652, -0.084852251, -0.083221343, -0.081553778, -0.08412289, 0.06272155, 0.066632404, 0.060364191, 0.050318456, 0.049472695, 0.052465581, 0.059400699, 0.044240656, 0.052465033, 0.044091006, 0.05629501, 0.055127626, 0.043025657, 0.055150977, 0.050793518, 0.067245215, 0.058066547, 0.075653616, 0.049265194, 0.061546962, 0.060996781, 0.06072709, 0.05540182, 0.078915488, 0.05969537, 0.080090759, 0.053739714, 0.059443705, 0.080833233, 0.057267747, 0.070856628, 0.072100596, 0.076181792, 0.080693161, 0.059297009, 0.073681459, 0.074376362, 0.080556099, 0.06379536, 0.068679892, 0.021231396, 0.033699025, 0.030014258, 0.031259214, 0.022226564, 0.024716939, 0.013309064, 0.017780552, 0.025219491, 0.01200919, 0.017777983, 0.010329616, 0.013977997, 0.004974669, 0.006518462, 0.006977164, -0.002572682, 0.004273485, -0.005560534, 0.002665877, 0.002293146, -0.007323939, 0.005245958, 0.000583968, -0.003876104, -0.014302641, -0.005598111, -0.005922481, -0.001875001, -0.007468266, -0.020302168, -0.004424443, -0.022809506, -0.025909174, -0.018765837, -0.018938964, -0.025053906, -0.016854656, -0.014956761, -0.025085387},
		{-0.027258266, -0.02623335, -0.025453728, -0.024958633, -0.024585283, -0.024485695, -0.024515448, -0.02480987, -0.025346183, -0.026122482, -0.027132943, -0.028366875, -0.029837043, -0.031447595, -0.033377591, -0.035448195, -0.037806699, -0.040319839, -0.042938044, -0.045802329, -0.048806393, -0.051948298, -0.055188568, -0.058529747, -0.062063106, -0.065543127, -0.069169955, -0.072699501, -0.076441133, -0.080050352, -0.083610998, -0.087292723, -0.09079739, -0.094392166, -0.097848316, -0.101115422, -0.104438355, -0.107465166, -0.110554649, -0.11348125, -0.005435045, -0.002771309, -0.003321463, 0.002135388, -0.000113018, 0.004058667, 0.007361996, 0.007536418, 0.010387266, 0.013848923, 0.014559425, 0.017670854, 0.021468601, 0.022253036, 0.024184327, 0.023472174, 0.027360841, 0.032164855, 0.033540159, 0.033140007, 0.036524277, 0.038517437, 0.03993191, 0.04266195, 0.0422635, 0.044517118, 0.044968227, 0.048285708, 0.045969123, 0.049675341, 0.04842897, 0.048427593, 0.04663476, 0.048685927, 0.046837387, 0.042616789, 0.042693329, 0.042645412, 0.039733614, 0.035741917, -0.032213347, -0.031774533, -0.030021114, -0.028780491, -0.028474, -0.023193764, -0.025926572, -0.024456387, -0.023928755, -0.01735874, -0.02376549, -0.020138431, -0.01114129, -0.009196444, -0.016508658, -0.011933047, -0.009269733, -0.007383057, -0.006343138, -0.005610988, 0.00077348, 0.004262577, 0.011322371, 0.014659099, 0.012062617, 0.012781631, 0.014551707, 0.023646148, 0.02233382, 0.026172038, 0.032654719, 0.036929949, 0.038433767, 0.038094689, 0.047953354, 0.048221836, 0.053403014, 0.04990604, 0.056883618, 0.058181039},
		{0.036317782, 0.025284982, 0.024701004, 0.026766907, 0.02940606, 0.022357071, 0.017303613, 0.019622654, 0.015988363, 0.019179539, 0.009663446, 0.009897524, 0.008035304, 0.000818671, 0.009740279, 0.005907766, 0.002742054, 0.002496916, 0.004914586, -0.001666743, 0.001229908, 0.002280282, 0.005299021, 0.003632478, -0.003534588, -0.00479491, 0.003965061, -0.00466596, -0.00341969, 0.005431871, 0.00346444, -0.003041375, 0.003169241, 0.00222639, 0.002252039, 0.012410006, 0.011906663, 0.015594996, 0.016103823, 0.003847611, -0.067262594, -0.058490133, -0.056029775, -0.051937664, -0.044106076, -0.035682637, -0.035561613, -0.028050428, -0.027388793, -0.019983472, -0.021860043, -0.015180888, -0.011663948, -0.014797998, -0.009388383, -0.012659343, -0.011922544, -0.010573752, -0.009481422, -0.00641549, -0.009703721, -0.009315208, -0.008520255, -0.013551006, -0.014924024, -0.014178169, -0.016276807, -0.016741355, -0.018573356, -0.020843614, -0.030119748, -0.027725169, -0.036680507, -0.040113754, -0.040185357, -0.04695839, -0.052434895, -0.060266767, -0.057521932, -0.06562782, 0.018493139, 0.020399432, 0.011780316, 0.013425096, 0.019243134, 0.019898037, 0.022629323, 0.021567078, 0.01949178, 0.02814615, 0.023009051, 0.030323331, 0.026108805, 0.030593537, 0.030011327, 0.032357976, 0.035003809, 0.027343447, 0.032419982, 0.031977781, 0.033123206, 0.034722443, 0.025390444, 0.027283092, 0.03211751, 0.023712564, 0.021811751, 0.022151143, 0.017236695, 0.02316864, 0.01467572, 0.018998063, 0.013371139, 0.012934867, 0.005629617, 0.003515411, 0.001593317, 0.00237664, -0.001788479, -0.004425097},
		{-0.096978474, -0.088419497, -0.08562031, -0.073528158, -0.078807437, -0.064805527, -0.070063464, -0.057955626, -0.065900846, -0.059972891, -0.057339696, -0.052966168, -0.049095244, -0.041939047, -0.036718643, -0.042975272, -0.032491317, -0.040445783, -0.03171974, -0.022499465, -0.034182857, -0.032923427, -0.023217423, -0.030218823, -0.033762159, -0.036061776, -0.028684128, -0.030747776, -0.028716261, -0.033504272, -0.022479371, -0.030028011, -0.035397608, -0.043097327, -0.040045495, -0.030058715, -0.036082666, -0.049020946, -0.042528836, -0.0470814, 0.001569347, -0.000675912, 0.006071893, 0.001404066, 0.002999307, -0.002537687, -0.009890513, -0.003982627, 0.00069113, -0.004126522, -0.017857073, -0.008731617, -0.018505542, -0.020795677, -0.011242452, -0.0183197, -0.023043331, -0.025368844, -0.029118228, -0.029211865, -0.021039863, -0.030637721, -0.031227369, -0.040541122, -0.034257059, -0.03103507, -0.036893072, -0.038154004, -0.03676333, -0.03946082, -0.051066477, -0.054621696, -0.047520321, -0.042789158, -0.044534002, -0.044759557, -0.065670494, -0.065053081, -0.066205531, -0.058138357, -0.003641553, -0.00399229, -0.000976871, -0.001936046, 0.001655727, 0.001204026, 0.004366191, 0.005180176, 0.005895553, 0.004719641, 0.007491422, 0.00493035, 0.004742101, 0.004243157, 0.00518575, 0.007332599, 0.004337936, 0.004275556, 0.003381305, -0.000729227, 0.00147383, -0.00123544, -0.005714212, -0.004578892, -0.009220569, -0.013015208, -0.016076104, -0.018727216, -0.01839316, -0.025985437, -0.027080966, -0.032289248, -0.034566048, -0.040780759, -0.046001955, -0.050504193, -0.056343237, -0.060949535, -0.064337635, -0.069640233},
		{0.032199397, 0.029848167, 0.026341475, 0.024129021, 0.021537892, 0.022908162, 0.020029437, 0.016212721, 0.019695356, 0.016923145, 0.014371261, 0.016573747, 0.012650498, 0.010637595, 0.010088764, 0.012446907, 0.011414396, 0.011127604, 0.011771309, 0.0090667, 0.008950144, 0.01165809, 0.009124663, 0.009127345, 0.009944512, 0.010201035, 0.013091763, 0.012549188, 0.012124237, 0.009718106, 0.013241722, 0.012944552, 0.011098643, 0.01544529, 0.014999274, 0.014800722, 0.016270631, 0.016787395, 0.019661125, 0.023213972, -0.027979881, -0.027051315, -0.018502142, -0.020034628, -0.013282802, -0.01198366, -0.003608725, -0.00207024, -0.000954596, 0.00369643, 0.003763992, 0.004440439, 0.008248855, 0.010659086, 0.008979668, 0.012538846, 0.010847401, 0.016367185, 0.013407472, 0.01608792, 0.012061165, 0.013871253, 0.01161647, 0.008771546, 0.011422498, 0.008455731, 0.008120413, 0.000300619, 0.004960642, 0.001261464, -0.007443317, -0.007387318, -0.017430755, -0.016187513, -0.022634289, -0.033282236, -0.038734073, -0.040245511, -0.053789242, -0.054393918, 0.023133037, 0.017598105, 0.012643129, 0.01128818, 0.005513246, 3.56E-05, 0.000279162, -0.006988714, -0.007824454, -0.010093287, -0.014022547, -0.018114973, -0.020577754, -0.022286944, -0.021515842, -0.021602413, -0.025895454, -0.025789596, -0.027983032, -0.027324656, -0.026209798, -0.027605137, -0.027092274, -0.023399653, -0.025172593, -0.023488913, -0.017432564, -0.017347798, -0.014037512, -0.012482339, -0.009948278, -0.004500787, -0.00075893, 0.001725869, 0.006823298, 0.009394305, 0.015249777, 0.021328494, 0.027470146, 0.02971845},
		{0.080808836, 0.046825921, 0.054775836, 0.053047204, 0.057044591, 0.049432516, 0.067872704, 0.0433693, 0.037288017, 0.052844348, 0.046183899, 0.026417993, 0.059136935, 0.045495707, 0.034171217, 0.038157224, 0.042676804, 0.055359513, 0.031054023, 0.01846785, 0.049197073, 0.027981948, 0.028909647, 0.033817664, 0.035861124, 0.023621607, 0.009855887, 0.041503454, 0.015720798, 0.00496076, 0.034165544, 0.020109028, 0.007503077, 0.003129768, 0.033385077, 0.002971668, 0.016618505, 0.026048847, 0.016066779, 0.017133142, 0.041115761, 0.046971717, 0.043583576, 0.048833181, 0.025908458, 0.048543517, 0.031332422, 0.044448441, 0.045543413, 0.039258083, 0.021588087, 0.040089242, 0.034764633, 0.050601926, 0.02726724, 0.020181261, 0.020129794, 0.034080139, 0.035332368, 0.04461786, 0.024391601, 0.027163632, 0.04470691, 0.02233776, 0.024613154, 0.038248512, 0.025683402, 0.031515413, 0.029713921, 0.017918379, 0.019815083, 0.036932758, 0.013392973, 0.031521491, 0.039147137, 0.016875788, 0.024423198, 0.02946471, 0.013199356, 0.036209784, -0.102926638, -0.103667447, -0.104546003, -0.105677566, -0.106866863, -0.10794524, -0.109470289, -0.110607488, -0.11218705, -0.113574983, -0.115102969, -0.116593518, -0.118180181, -0.119770658, -0.121190473, -0.122945553, -0.124489735, -0.125965693, -0.127594729, -0.129010433, -0.130469404, -0.131827253, -0.133215772, -0.134502009, -0.135745263, -0.136922843, -0.138054366, -0.139018522, -0.13996167, -0.140793027, -0.141422416, -0.142237087, -0.142818562, -0.143206906, -0.143641938, -0.143985897, -0.144197606, -0.144546199, -0.144583784, -0.144547505},
		{0.029343506, 0.029043456, 0.028811501, 0.028438721, 0.028718319, 0.029000869, 0.029187865, 0.027843444, 0.02842411, 0.028772338, 0.02803964, 0.027750786, 0.02828926, 0.027368883, 0.026243426, 0.025734267, 0.02591947, 0.02658211, 0.02505559, 0.025545028, 0.026094553, 0.025116009, 0.02424134, 0.025189572, 0.024670723, 0.024442886, 0.025174944, 0.025015337, 0.025617635, 0.025248361, 0.025035048, 0.026987006, 0.027635778, 0.027693573, 0.028998856, 0.02868477, 0.029715474, 0.031123519, 0.032176964, 0.033743948, -0.057359139, -0.053024863, -0.046686081, -0.042292312, -0.038414147, -0.031738078, -0.03016408, -0.025216133, -0.023303393, -0.019575313, -0.015667779, -0.013120841, -0.011833581, -0.010018835, -0.010658729, -0.0062608, -0.005427497, -0.006797624, -0.007954876, -0.004999356, -0.007316341, -0.008176372, -0.008570555, -0.011677975, -0.010635738, -0.012584065, -0.016182726, -0.018027391, -0.019829591, -0.020230229, -0.024770543, -0.03026904, -0.030704243, -0.036629487, -0.038301677, -0.042021913, -0.046167295, -0.048232497, -0.055231067, -0.060803033, 0.03417588, 0.033454189, 0.032818527, 0.032157579, 0.031413056, 0.030823178, 0.030135102, 0.029608065, 0.029103875, 0.028619218, 0.028028836, 0.027643813, 0.027351142, 0.026982369, 0.026795569, 0.026699425, 0.026670187, 0.026611406, 0.026549021, 0.026671098, 0.027001403, 0.027159733, 0.027462374, 0.027951406, 0.028396833, 0.029005827, 0.029455235, 0.03023925, 0.030897602, 0.031729301, 0.03256561, 0.033485655, 0.034416235, 0.035311639, 0.03641475, 0.03761072, 0.038761611, 0.039910473, 0.040920725, 0.042196066},
		{-0.02148256, -0.026007032, -0.02396099, -0.023405059, -0.017655134, -0.020996954, -0.017632413, -0.01978865, -0.019657523, -0.013956972, -0.013321648, -0.01077073, -0.010356673, -0.009767442, -0.008644256, -0.008142176, -0.008166612, -0.00721798, -0.012503878, -0.003176431, -0.00876984, -0.009380184, -0.00717337, -0.006917242, -0.004858075, -0.007399828, -0.009450134, -0.000787319, -0.008743724, -0.009233284, -0.004878402, -0.001705563, -0.00902985, -0.007498575, -0.004639886, -0.00641741, -0.001785792, -0.010143025, -0.0066992, -0.003880479, 0.004726586, 0.003627531, 0.005123548, 0.005908246, 0.011498623, 0.004729415, 0.004435311, 0.005922118, 0.012234699, 0.009521035, 0.010147361, 0.011886358, 0.014396799, 0.016711778, 0.00784434, 0.007053968, 0.006725254, 0.007828356, 0.008628076, 0.009046735, 0.009973206, 0.007104862, 0.011076865, 0.001247962, 0.008893823, 0.001408806, -0.007405852, -0.005521022, -0.002535982, -0.013428364, -0.005098822, -0.01814678, -0.023811267, -0.02525771, -0.028297869, -0.032513498, -0.030889406, -0.036987277, -0.032601702, -0.037031712, 0.020530612, 0.020672329, 0.021992457, 0.022262608, 0.022709039, 0.023236177, 0.023775432, 0.024501356, 0.024182869, 0.024228106, 0.024427719, 0.0241861, 0.023369552, 0.023468906, 0.022445022, 0.021793467, 0.021284953, 0.020201634, 0.018735217, 0.017686534, 0.015944643, 0.014493596, 0.013658918, 0.011222231, 0.010085337, 0.007889424, 0.00606931, 0.003295909, 0.001407456, -0.00072473, -0.003134908, -0.005771072, -0.008842872, -0.011504388, -0.014151217, -0.017122239, -0.019967867, -0.023203286, -0.026416707, -0.029534292},
		{0.1437053, 0.142522843, 0.141815215, 0.14082452, 0.139452384, 0.138662476, 0.137556452, 0.136248593, 0.134606372, 0.133102816, 0.132083631, 0.130258509, 0.128752529, 0.12715211, 0.124968604, 0.12321713, 0.121228971, 0.119304374, 0.117203626, 0.114883404, 0.112557847, 0.109861071, 0.107650233, 0.105204568, 0.102863046, 0.100410632, 0.09791553, 0.095354481, 0.092754238, 0.090399109, 0.087689539, 0.085255518, 0.083474834, 0.081233075, 0.078929283, 0.077367254, 0.075188496, 0.073881646, 0.072539049, 0.071231388, -0.079769864, -0.084972586, -0.090383275, -0.092880625, -0.093471405, -0.098844628, -0.099806035, -0.100991294, -0.106524252, -0.10641587, -0.106441031, -0.110632765, -0.109430287, -0.109629781, -0.113478472, -0.115230132, -0.115398557, -0.110763344, -0.109198218, -0.113395356, -0.111721341, -0.105269632, -0.108017418, -0.104308351, -0.101174561, -0.099270163, -0.096923371, -0.091142738, -0.085670173, -0.084974878, -0.077439962, -0.074589798, -0.070390214, -0.064360128, -0.062483552, -0.058018276, -0.051889901, -0.042814298, -0.038880507, -0.03253251, 0.02261238, 0.02494923, 0.003375685, 0.019577697, -0.001618544, -0.001339104, 0.004952355, -0.005971079, 0.007779234, -0.014210594, -0.020086135, -0.010270746, -0.002875451, -0.023222898, -0.019171103, -0.029774989, -0.02536107, -0.013223861, -0.0097675, -0.018633214, -0.016984011, -0.028219046, -0.027978607, -0.020629312, -0.012168313, -0.030119512, -0.022510076, -0.006534243, -0.01930516, -0.019992837, -0.000947282, -0.017372914, 0.002363125, -0.004313132, 0.013951735, 0.009461327, 0.012824765, 0.026281427, 0.028640539, 0.014189018},
		{-0.12031595, -0.089820948, -0.094630383, -0.097522619, -0.095740437, -0.051662336, -0.053019498, -0.073003333, -0.067857417, -0.064019484, -0.02470234, -0.043665298, -0.053982445, -0.004207314, -0.028846544, -0.030590008, -0.024864587, -0.013562194, -0.010005101, 0.008720859, 0.01769655, 0.001887488, 0.008740189, 0.018539397, -0.013558577, 0.00537912, -0.009360287, 0.010416476, -0.016595455, 0.00821584, -0.023754544, -0.03512371, -0.008301142, -0.01862734, -0.047729476, -0.022570031, -0.055192303, -0.060128486, -0.062311523, -0.06350839, -0.028209144, -0.060709355, -0.038907762, -0.027640596, -0.049392241, -0.019857315, -0.037749083, 0.007645478, 0.010847231, -0.018069995, 0.012812523, -0.006625661, -0.027974321, -0.024290874, -0.028216607, 0.025300547, -0.002362314, 0.013618295, 0.016947603, 0.002167426, -0.001216516, -0.009447763, -0.017699891, -0.025369653, -0.032834029, -0.005648438, -0.009446062, -0.010035045, -0.00939974, -0.045428478, -0.030715231, -0.076378874, -0.066277977, -0.086196117, -0.088323313, -0.062825504, -0.096248455, -0.12991752, -0.12064428, -0.113163173, -0.079391344, -0.076160261, -0.071579434, -0.068052894, -0.064635062, -0.060983273, -0.058342869, -0.05512562, -0.051983992, -0.049012436, -0.046227045, -0.043990831, -0.041816892, -0.040708396, -0.039029165, -0.037918297, -0.036674932, -0.036598176, -0.036302348, -0.036059209, -0.036467988, -0.03723611, -0.038637877, -0.040432069, -0.04228745, -0.044823245, -0.047905923, -0.050811939, -0.05449543, -0.058201036, -0.062291218, -0.06662168, -0.071672891, -0.077340748, -0.083094151, -0.089039379, -0.095387605, -0.10104532, -0.108661538, -0.115507132},
		{0.006078479, -0.01050513, 0.013317849, -0.013517703, -0.006427028, -0.000610186, -0.008898769, 0.006514375, 0.013821195, 0.005981699, 0.011866825, -0.010184876, -0.01714335, -0.010030774, -0.01021137, 0.004421493, -0.010413684, -0.01292879, -0.003130382, 0.001437268, -0.015694285, -0.009432418, -0.02768627, -0.012377612, -0.043103173, -0.025293682, -0.040988985, -0.055878737, -0.055549234, -0.041760133, -0.040736697, -0.044100073, -0.044636657, -0.069457109, -0.056614217, -0.061727921, -0.088869974, -0.100675215, -0.099000367, -0.102350287, -0.070333761, -0.066048464, -0.054565032, -0.056737847, -0.046013495, -0.049081429, -0.043211784, -0.042059214, -0.028092666, -0.034327879, -0.022898716, -0.025736498, -0.022100152, -0.019563202, -0.013909115, -0.01148253, -0.020160823, -0.017789794, -0.019003196, -0.010105924, -0.014006998, -0.019756577, -0.013378831, -0.022150595, -0.023805959, -0.029897059, -0.0311526, -0.041049982, -0.039399021, -0.044608417, -0.050571802, -0.048618363, -0.066755191, -0.072126606, -0.080008054, -0.076248471, -0.095120785, -0.093875829, -0.112054164, -0.113969077, 0.066755639, 0.06464262, 0.052502512, 0.050791417, 0.047252178, 0.043726191, 0.038917081, 0.032978735, 0.025147096, 0.021348086, 0.016969172, 0.015700612, 0.013212372, 0.011979823, 0.007968387, 0.006449433, 0.009495032, 0.010315151, 0.008499927, 0.01118914, 0.008494121, 0.013525145, 0.017289964, 0.015456148, 0.018676769, 0.024491117, 0.028128413, 0.035512798, 0.040843107, 0.043734505, 0.047854685, 0.056810412, 0.061696884, 0.066330606, 0.079862295, 0.08663878, 0.090367386, 0.104707569, 0.11288766, 0.117257894},
		{0.001841209, 0.001492281, -0.000235675, 0.004188367, 0.002484171, 0.004165501, 0.001255708, 0.001272109, 0.003152769, 0.001519713, 0.004043553, 0.004150783, 0.001237461, 0.001939578, 0.000207645, -0.000584218, 0.000154553, -0.001219784, 0.00284074, 0.002124292, -0.000433088, -0.00222078, -0.000578134, -0.001802769, 0.000592041, -0.003785756, 0.00043769, -0.003464261, -0.001642409, -0.001755772, 0.000252095, -0.001631506, -0.00040974, -0.001288157, -0.002408883, -0.00296194, -0.002117953, -0.000946055, -0.004587891, -0.003586977, 0.007319707, 0.006869943, 0.006678745, 0.006075404, 0.006802546, 0.005208535, 0.005801963, 0.0057599, 0.004658533, 0.003783199, 0.003457004, 0.002668339, 0.002594419, 0.002114511, 0.001038407, 0.001463148, 0.000215458, -9.50E-05, -0.000265667, -0.00138096, -0.00201995, -0.002380441, -0.002995559, -0.002779108, -0.001531365, -0.000872802, -0.002115264, -0.000893815, -0.00132697, -0.000242343, -0.000574883, 0.002938429, 0.001592694, 0.003457305, 0.004770298, 0.007390367, 0.007805063, 0.009875901, 0.014284941, 0.014986325, 0.009452293, 0.012227247, 0.014949084, 0.01745144, 0.020166838, 0.022540854, 0.024943265, 0.026940939, 0.029095377, 0.030909706, 0.032607487, 0.034060293, 0.035479978, 0.036490362, 0.037500478, 0.03822032, 0.038494268, 0.038880547, 0.038786296, 0.038547063, 0.038009441, 0.037032244, 0.035929874, 0.034612819, 0.032980885, 0.031046562, 0.028927631, 0.026398809, 0.023729225, 0.020687396, 0.017474967, 0.013777461, 0.010004321, 0.006017451, 0.001679529, -0.002819677, -0.007539104, -0.012617697, -0.017620785, -0.023010066},
